%YAML:1.0
---
opencv_ml_svm:
   format: 3
   svmType: C_SVC
   kernel:
      type: LINEAR
   C: 1.
   term_criteria: { epsilon:1.1920928955078125e-07, iterations:1000 }
   var_count: 3780
   class_count: 4
   class_labels: !!opencv-matrix
      rows: 4
      cols: 1
      dt: i
      data: [ 0, 1, 2, 3 ]
   sv_total: 6
   support_vectors:
      - [ 0.00598990172, -0.00204609102, 0.000893102959, 0.0045738183,
          -0.00234852987, 0.00502201309, -0.00785591453, -0.00875346363,
          0.00495490432, 0.00270548859, 0.00031672875, -0.00118784606,
          0.00603282405, -0.00123632886, 0.00544798188, -0.00342996488,
          -0.00313268416, 0.00345969107, -0.00729117543, -0.00397784915,
          -0.00242251158, 0.00283733313, -0.0015165013, 0.00377371255,
          -0.00459820731, -0.00539744319, -0.00784680061, -0.00428266823,
          0.00109569379, -0.00155081553, 0.00752243586, -0.000963443657,
          0.00515486579, -0.0028767928, -0.00134548231, -0.00525197247,
          -0.00249727629, -0.00261449348, -0.00275413622, 0.00219292613,
          -0.000980862183, 0.00250554294, -0.00274016615, -0.00336684752,
          -0.00369734853, 0.00118796795, 0.00103856041, 0.0187291894,
          0.00314508192, 0.00467255618, 0.00298442203, -0.0037996585,
          -0.0102769248, -0.000466867175, -0.0113471802, -0.00164466677,
          -0.0020168575, 0.00301176077, 0.00122143468, 0.00245593884,
          -0.0026790495, -0.00255031511, -0.0118710939, -0.0132033387,
          -0.00405025482, -4.55047011e-05, 0.00235357648, 0.005107156,
          0.00310367579, -0.00340082496, -0.00667518377, -0.013182777,
          -7.37331138e-05, -0.000184647521, 0.0191917997, 0.00102191174,
          -0.00276006525, -0.000328209106, -0.0033481901, -0.0108472584,
          -0.00119946396, 0.00831646845, 0.000699047756, -3.37167439e-05,
          0.00996550173, 0.00275967899, 0.00189353561, 0.00141004019,
          -0.00599849084, 0.00737626897, -0.0253356174, -0.00977971219,
          -0.00325249089, -0.00473860791, -0.00533963647, -0.00102259312,
          -0.00570386369, -0.00879634358, -0.0252691284, -0.0226376746,
          -0.00550763123, -0.00652448134, -0.00187621254, 0.000908081071,
          -0.0001717993, -0.00581635861, -0.00520186499, -0.0229786597,
          0.0154995555, -0.00586196454, -0.0104471371, 0.00303642265,
          -0.00534241321, 0.000278772641, -0.00471782824, -0.00363999442,
          0.0149570657, 0.01914276, -0.00606292486, -0.00787837151,
          0.00235844753, -0.00695035467, -0.000135723531, -0.00591865415,
          -0.00233378308, 0.0187898278, -0.0257040262, -0.00272237067,
          -0.00668527, 0.000867564988, -0.000635391683, 0.000466694153,
          -0.0063901823, -0.00303879241, -0.0276010577, -0.0233221985,
          -0.00213109748, -0.00539110322, 0.0017405831, -0.00246586371,
          0.00111884996, -0.00592300529, -0.00200417335, -0.0232689772,
          0.010487468, 0.000170655854, 0.00518028066, 0.00335670891,
          -0.00824385695, 1.22738402e-05, -0.00398928626, -0.00229969155,
          0.0101431888, 0.0106840599, -0.00126150693, -0.00975039788,
          -0.014693981, -0.0162474867, -0.0141694471, -0.000425701932,
          -0.00557716843, 0.00674068509, -0.0254411995, -0.000782431511,
          -0.00143929338, 0.000961793645, -0.00677136751, 0.000434423448,
          -0.00322853425, -0.000770319661, -0.0226846226, -0.00684332149,
          0.00126440194, -0.00326629146, -0.0204798914, -0.0130056413,
          -0.0200780425, 4.90174316e-05, -0.00033439789, -0.0153449429,
          0.000414247159, -0.00458083116, -0.00483317254, -0.00301526044,
          -0.00991104543, -0.003898934, -0.00429881178, -0.0111181112,
          -0.000114218106, 0.00367961591, 0.00763150211, 0.010177793,
          0.00684684422, 0.00427636085, 0.00318199839, 0.00539822131,
          -0.00317554502, -0.000359131984, -0.0147690121,
          -0.000594814133, -0.00539008342, -0.0116829555, -0.0162957925,
          -0.00516905636, -0.007145626, -0.0129184006, -0.0172112286,
          -0.000506322656, 0.00545223849, 0.00514884898, -0.00194811996,
          0.0109820645, 0.00196447806, 0.00712332129, -0.00389963831,
          8.19540655e-05, 0.00668382598, -0.000876973907, 0.000241399321,
          -0.000554021972, -0.00862547942, 0.000485028635, 0.00246717012,
          -0.000602974498, 0.00300201681, -0.00402916456, 0.00357022462,
          -0.00179748819, -0.00126204384, -2.73594633e-05, 0.00190674665,
          0.00376137882, 0.000366367545, -0.00403736532, -0.00897865836,
          7.40253818e-05, 0.000396184303, -0.000884938112, 0.00721742865,
          0.00106890663, 0.00692133885, 0.00631237403, -0.00930618215,
          -0.00593008101, 0.0104409615, 0.00639153505, 0.00269750669,
          0.0154186152, 0.00476631941, 0.00955435261, 0.00706512155,
          -0.00595653942, -0.000319871295, 0.0073252013, -0.000841815665,
          0.00383127248, 0.00390880182, 0.00420293398, 0.00186502165,
          0.00361752976, -0.00157875009, 0.0115279891, 0.00753057329,
          -0.00334580499, 0.00151357648, -0.0194982775, 0.00212973752,
          -0.0040527801, 0.00374538987, 0.0114147412, -0.00253620674,
          0.00558490586, -0.000959462835, 0.00389273837, 0.0170302168,
          0.00564817898, 0.0052212216, 0.00412840955, -0.00463018473,
          0.000476843823, 0.00471219933, -0.0086539248, -0.00280245161,
          -0.0183917619, -0.00311011425, -0.00493129669, 0.00515612774,
          -0.000584587804, 0.0170979407, -0.00498590525, -0.0108084343,
          -0.0039301631, -0.0332590938, -0.00414317474, -0.0164004061,
          -0.00602938328, 0.016886441, 0.025608955, 0.000936347351,
          -0.009099029, -0.00114409032, -0.0213520024, -0.00146025908,
          -0.00141835958, 0.000281233282, 0.0266936105, 0.00680924812,
          -0.00448488491, -0.0152077666, -0.00965869427, -0.0282166041,
          -0.00938185491, -0.0162061099, -0.00247790245, 0.00564644998,
          0.0240100175, 0.00174687651, -0.0150031196, -0.0104711615,
          -0.0155823575, -0.00055113557, -0.00354183232, 0.00490363408,
          0.0249182321, 0.0232474264, -0.000661168364, -0.0236496609,
          -0.0118855629, -0.019985972, -0.00235580327, 0.00132761907,
          -0.00188651728, 0.0250516217, 0.00708111655, -0.0042000073,
          -0.0116638495, -0.00890182704, -0.0292433891, -0.00159462681,
          -0.00675223675, -0.00906363595, 0.00811414607, 0.025468953,
          0.00612011272, -0.0173422638, -0.0123404777, -0.0259776134,
          0.00317508308, 0.00522343954, 0.00523474766, 0.0265631899,
          0.00982486177, -0.0037651849, -0.018183887, -0.0151644638,
          -0.0299409777, -0.0011371905, -0.00897288416, -0.0117448708,
          0.0101215187, 0.00756114582, -0.0136073967, -0.0133124916,
          -0.0211068448, -0.0368498191, -0.00808665343, -0.00693632336,
          -0.0199328735, -0.00136848621, 0.0116117895, -0.00474426197,
          -0.00802666787, -0.00406225445, -0.0178533699, -0.00757206976,
          -0.011268734, -0.0201436356, 0.00969646499, 0.00937320944,
          -0.0110926619, -0.01323207, -0.0199377015, -0.0373194702,
          -0.00705288956, -0.00974482857, -0.023118034, 0.00774920406,
          0.0102365585, -0.00322717498, -0.00762147643, -0.00408038544,
          -0.015812207, -0.00786010362, -0.0210842323, -0.0253957696,
          0.0100828111, 0.0102068223, -0.00204387447, -0.00642407592,
          -0.000619340804, 0.000945190142, 0.000776948524,
          -0.00660436507, -0.00885318872, 0.007249346, 0.00831647497,
          -0.000114795635, -0.00520381145, 0.000347265537,
          -0.00261195167, 0.00199561939, -0.00318152411, -0.00358892977,
          0.00794179272, 0.00725101959, 0.00065675925, -0.00530552771,
          1.02996892e-05, 0.00369114592, 0.000187873971, -0.0172096398,
          -0.025122365, 0.00723380269, 0.0023263956, 0.00721882517,
          -0.00313983485, 0.00184109225, -0.000729439373, 0.0017138765,
          -0.014484996, -0.0242970604, 0.00262887357, 0.00757822441,
          0.0013623886, -0.00187233498, 0.00135521695, -0.0051370631,
          0.00204061717, 0.000482472446, 0.000427379797, 0.00686665531,
          0.000587020942, -0.00445135543, -0.00560858473,
          -0.000692477624, 0.000447438448, 0.00198003696, -0.00066400005,
          0.00219589402, -0.00111450395, -0.00330387219, 0.00761904707,
          0.000188358434, 0.00539477309, -0.00414392212, 0.00437741634,
          -0.0127547532, -0.0199125037, -0.00316486158, -0.0108012781,
          -0.00257541682, -0.00536918966, 0.000516994332, 0.0046188389,
          0.000669503119, -0.0128218476, -0.0217891075, -0.0108990949,
          -0.000141955519, -0.00476805912, -0.00410107011, 0.0023302047,
          0.00277190586, 0.00344078057, -0.00127110281, 0.000809648714,
          -0.000786683115, -0.00158995751, -0.00441977521,
          -0.00281970855, 0.00233800872, 0.00307145645, 0.00268041063,
          -0.00140924996, -0.00418206118, -0.00156977924, -0.00507542258,
          -0.00253155152, -0.0044994764, 0.00210393989, 0.00706174737,
          0.00301808887, -0.0111565152, -0.0172407534, -0.00569429668,
          -0.00352262752, -0.00330895488, -0.00267881551, 0.00199570414,
          0.0056371307, 0.00299199438, -0.00976123847, -0.0167433396,
          -0.00348576624, -0.00171782635, -0.00242794841, -0.00390357617,
          0.00302662444, 0.00383901061, 0.00432389835, -0.000766623009,
          0.000623673841, -0.00138862256, 0.000638826576, -0.00145880331,
          -0.00606209505, 0.00222479319, -0.00750467135, 0.00354918791,
          -0.00301595521, 0.00322893518, -8.27691911e-05, -0.00227049552,
          -0.00239046011, -0.00351618673, 0.00356434635, 0.00863107014,
          0.00430357596, -0.0102491267, -0.0130790528, -0.00169364607,
          0.000143941288, -3.81188584e-05, -0.00460094539, 0.00278971018,
          -0.00378700206, 0.00284205377, -0.00729877176, -0.00364981522,
          0.000580193708, -0.0272881296, -0.00598172517, -0.00350321853,
          0.000726077589, 0.00413392624, 0.00089679641, -0.00233089738,
          -0.00472712656, -0.027951315, -0.0269745551, 0.00137334596,
          -0.000582842214, 0.0052970266, 0.00285696262, 0.00351637672,
          0.000891659467, 0.000442366319, -0.0276278388, -0.0266225822,
          -0.00888526067, -0.00525177689, 0.0026440667, 0.00579576008,
          0.00243304833, -0.00583533756, -0.00710680708, -0.0269453917,
          -0.0266151689, -0.00072521629, -0.00128335843, 0.00556155527,
          0.0029295478, 0.00481037609, -2.37137629e-05, -0.000949048379,
          -0.0260603707, -0.0313610174, -0.00124573358, 0.000276506617,
          0.00133104587, 9.35444696e-05, 0.000936247117, 0.000282880443,
          -0.00130763976, -0.0316554718, -0.0315424353, -0.00462645525,
          -0.00204042369, -0.000157726492, 0.00563685782, -0.00027236843,
          -0.00338324509, -0.00734312739, -0.0316040553, -0.0307775047,
          -0.00156670483, 0.000183122713, 0.00125402201, -0.00152856566,
          0.00167060411, 4.09887725e-05, -0.00215002685, -0.0305897705,
          -0.0307097454, -0.00905191153, -0.00494086277, -0.00160660001,
          0.00247996347, -0.000899070175, -0.00291881384, -0.00734854909,
          -0.0308831614, -0.0315125547, -0.00803449005, -0.00375877018,
          -0.00253531151, 0.00214040233, -0.00116218661, -0.00378276501,
          -0.00831358694, -0.0314972214, -0.0278527401, -0.00478952052,
          -0.00276215281, -0.000809548132, 0.00844369084,
          -0.000100437654, -0.00293430011, -0.00609126734, -0.030491244,
          -0.0309898555, -0.0122621255, -0.00547287287, -0.00480450597,
          0.00259894901, -0.00238412386, -0.00406572176, -0.0110230604,
          -0.0308658406, -0.0304635577, -0.00975268148, -0.00350635033,
          -0.00153556128, 0.00961728022, -0.000317131926, -0.00418337248,
          -0.0099937031, -0.0305305682, -0.0301874708, -0.00347747817,
          -0.00273538008, 0.000861951557, 0.0111503843, 0.00125388463,
          -0.00256945612, -0.00373592414, -0.0329754688, -0.0283601452,
          -0.0010675448, -0.00143547682, 0.00209196121, 0.0108999992,
          0.00204256992, -0.000877687649, 0.000555623905, -0.0276855566,
          -0.0300253481, -0.0119686732, -0.00411982369, 0.00138030271,
          0.0111809578, 0.00166804635, -0.00293191941, -0.00512617314,
          -0.0297468994, -0.0240606237, -0.00260657282, -0.00247074384,
          0.00196768437, 0.0112361461, 0.00223245053, -0.00117480429,
          0.000872024975, -0.0247577168, -0.0268856362, 8.30560894e-05,
          0.000397169788, 0.00167808472, 0.00808184687, 0.00106462219,
          -0.00101178128, -0.000470315135, -0.0262822639, -0.0142527055,
          0.00388634694, 0.00853024982, -0.0209771376, -0.00739020016,
          -0.00766724534, 0.00624412764, -9.65120489e-05, -0.0150419259,
          -0.0219886024, 0.000141017823, 0.000223725714, 0.00179085787,
          0.0123047447, 0.00171116006, -0.000665888481, -0.00133952394,
          -0.0226647742, -0.0171112027, 0.00697371038, -0.00242790347,
          -0.0218968429, -0.00462225918, -0.0129390983, -0.00152091437,
          -0.00427715853, -0.0169860031, -0.0152398115, 0.00153020048,
          0.000715762435, -0.00819759071, -0.0192217808, -0.00154300337,
          -0.00242883246, -0.00648789154, -0.0147829764, 0.00239094323,
          0.0109491711, 0.005921192, 0.0026179913, 0.016143959,
          -0.00160845788, 0.0228753928, 0.00430730404, 0.000671861286,
          -0.0174997598, 0.00125372107, 0.00146005908, -0.00708114915,
          -0.0196408518, -0.00394062744, -0.00761998305, -0.0138172871,
          -0.0171365608, -0.02138195, 0.0102723138, 0.00240327581,
          -0.00580038829, -0.0135609563, -0.0014981284, -0.00170136476,
          -0.00713257166, -0.0185934659, -0.0147944214, 0.00734783709,
          0.007141551, 0.000602950109, 0.00233425526, 4.27824853e-05,
          0.00387374056, 0.00391007029, -0.0158581138, -0.00589816505,
          0.0185254309, 0.0222623814, 0.0124402624, 0.0194643904,
          0.0121692959, 0.0175693166, 0.0106161563, -0.00784739014,
          -0.0237049144, 0.00712442398, 0.00374824135, -0.000175332767,
          -0.00971461087, -0.000529588666, 0.0045166919, -0.00109724025,
          -0.0238271523, -0.0105572948, 0.0130789867, 0.0221568383,
          0.0116154952, 0.0184894688, 0.012590033, 0.014403942,
          0.00903735124, -0.0104386518, -0.00640744064, 0.00976308715,
          0.00870223157, 0.00430263113, 0.0155609157, 0.0052446737,
          0.00699768588, 0.00382832671, -0.00649142172, -0.000547976932,
          0.00560947368, -0.000569424941, -0.0039323871, -0.0114770355,
          -0.00464363303, -0.000981725287, 0.00369338249, -0.00101112097,
          -0.00293635973, 0.00911643729, 0.0221195556, 0.00526970718,
          0.0226868857, 0.00747673865, 0.0103723314, 0.00515699061,
          -0.00353383529, -0.00238896464, 0.00400624285, 0.00636308966,
          -0.0021684384, -0.0099717183, -0.000127012594, 0.000728243263,
          -0.00157420465, -0.00238896464, 0.0150165884, 0.000645770517,
          -0.00441660639, -0.0110135078, -0.0215721522, -0.00915018003,
          -0.00894332305, -0.000271788187, 0.0141366832, 0.0229719952,
          0.00419298979, -0.0110964542, -0.0151070729, -0.0107484087,
          -0.00162462553, -0.00276266434, -0.000923712447, 0.0246350449,
          0.0111438148, -0.00269720098, -0.0077613825, -0.0144720804,
          -0.0212099254, -0.0084739225, -0.0098444568, -0.00514829159,
          0.0149008837, 0.0250297431, 0.00771608809, -0.0109094689,
          -0.0149021493, -0.0198569652, -0.0063428008, -0.000767881225,
          -0.00262950175, 0.0263949931, 0.0228292234, 0.00264887884,
          -0.012893185, -0.0202939752, -0.0221658628, 0.000720323471,
          0.00117858662, -0.000530917663, 0.0252482202, 0.0131761963,
          -0.00377552398, -0.00696247164, -0.0174828768, -0.0178923775,
          -0.000728441926, -0.00280812988, -0.00645650271, 0.0131912213,
          0.0251908042, 0.00448362436, -0.0075487853, -0.0190640353,
          -0.0281143896, -0.00464812806, -0.00106758357, -0.00766958855,
          0.0287471786, 0.0130482623, -0.00311442628, -0.00171063154,
          -0.00784306135, -0.0162046924, -0.000717144867, -0.00764722889,
          -0.00964143407, 0.0131301489, 0.010687504, -0.012573177,
          -0.0092901364, -0.0236541722, -0.0502459928, -0.0106824096,
          -0.00740490155, -0.0155649688, 0.0114611611, 0.00936701894,
          -0.00663882215, -0.00153076008, -0.00313586136, -0.0206754114,
          -0.00299849291, -0.0119723529, -0.0148073584, 0.0092981616,
          0.0111079346, -0.00973288063, 0.000522548216, -0.00250843097,
          -0.0442554504, -0.00203739153, -0.00475972984, -0.00713297585,
          0.0136707369, 0.00928193238, -0.00821065623, 0.000725126767,
          -0.00210683583, -0.0181412213, -0.00128935173, -0.000883618835,
          -0.00483827945, 0.00939466618, 0.00775874685, 0.000998490257,
          -0.000796143257, 0.00080698682, 0.00151288067, 0.000858470798,
          -0.00989480689, -0.0108939223, 0.00775032723, 0.00417517405,
          0.0060790712, 0.000737136579, 0.00272425683, -0.00591008039,
          0.00131467741, -0.0100746518, -0.0206003487, 0.00409394549,
          0.00861466024, -0.000410366367, -0.00119287032, 0.00150254718,
          -0.00403003488, 0.000943845836, -0.00275923102, 0.00693331286,
          0.00775874685, 0.0032898467, 0.00283874548, 0.00458226353,
          0.00300902943, -0.00814929791, 0.000600305619, -0.00281251245,
          -0.00124832464, 0.00239050924, 0.00271291984, 0.0048508537,
          0.00146130612, 0.00718220603, -0.00227398612, 0.00351503631,
          -0.00929452106, -0.0188875534, 0.000447064667, -0.00576288207,
          -0.000428367435, -0.0025039087, 0.00164757424, 0.00983692985,
          -0.00281785638, -0.0173838455, -0.0220314749, -0.00918735191,
          0.00207653176, 0.000885982183, 0.00498672714, 0.00849621836,
          -0.00223697675, 0.00193074939, -0.00413651951, -0.00880671106,
          0.000590477313, 0.00100655016, -0.0136254691, -0.0128703862,
          0.000883910223, 0.0148687065, -0.00628219172, -0.0118739475,
          -0.0191841628, -0.00236487319, -0.00436738692, -0.000945674547,
          -0.00315881078, 0.00065171509, 0.0119211841, -0.00550420908,
          -0.0182408392, -0.0193072986, -0.00877136365, -0.00616849773,
          -0.00154849049, -0.000703708618, 0.00061465695, 0.0135315023,
          0.000143225552, -0.0170452986, -0.0214296654, -0.00820736866,
          0.00450727437, -0.00979461521, -0.0149709471, -0.0004806082,
          0.00920487102, -0.0117497137, -0.0171862748, -0.0144634396,
          0.00346391741, -0.000124621482, -0.0115223117, -0.00423339475,
          0.00132613396, 0.010038008, -0.00168960507, -0.0123142665,
          -0.0137536721, -5.06569495e-06, -0.00127026963,
          -0.000923879561, -0.00064452138, 0.00226467825, 0.0143970633,
          0.00283035915, -0.0173839666, -0.0186822042, -0.00538335089,
          -0.00143394875, 0.0012334343, -0.00210335595, 0.00105091999,
          0.0029469016, 0.000661196071, -0.0104472544, -0.00955303013,
          -0.00344782881, 0.00555408141, -0.0110615194, -0.009724929,
          0.00163815427, 0.0112167522, 0.00323206, -0.0167856477,
          -0.0192043409, 0.00317416177, 0.00423994381, -0.00835620612,
          -0.0103082722, -0.00167474756, 7.41786425e-05, -0.000172965723,
          -0.0162245724, -0.0147729767, 0.000359003316, -0.0200294238,
          -0.00527862553, -0.00460738409, 0.0033774171, 0.000326097186,
          0.00281705055, -0.0063722874, -0.00771737657, -0.0205004457,
          -0.0197085161, -0.00131373922, -0.00329072168, 0.00559509126,
          -0.000883553759, 0.00562750176, -0.00291105127, -0.00589248864,
          -0.0183521435, 0.00853574462, -0.00694563426, -0.0023263141,
          0.00457959715, 0.000745209749, 0.00469120126, -0.00325794332,
          -0.0027097722, 0.00778195076, 0.00935456716, -0.0060455394,
          -0.00532144262, 0.00634987373, 0.000560403743, 0.00575419888,
          -0.00129169994, -0.00335109117, 0.0087174233, -0.0256996118,
          -0.00271400227, -0.00248739496, 0.00263712765, 0.000454448222,
          0.00291161821, -0.00286228396, -0.00350001967, -0.025179239,
          -0.0244035553, -0.00652264431, -0.00451148069, 0.00166865485,
          0.00518773729, 0.00257708714, -0.00313563389, -0.00350319291,
          -0.0245512277, 0.00262307213, -0.00784903299, -0.00369937066,
          0.00256068003, 0.0024808594, 0.00241778768, -0.00255364552,
          -0.00362643576, 0.00216760673, 0.00351315574, -0.00945022143,
          -0.00463485811, 0.00293765496, 0.00685615186, 0.00312879193,
          -0.00311732595, -0.00479276059, 0.0034320408, -0.0265623014,
          -0.0117590353, -0.00704345573, -0.00476660766, -0.000744257821,
          -0.00133926223, -0.00532618072, -0.0102760755, -0.0264607333,
          -0.0254020933, -0.0071444232, -0.00549889496, -0.0012652392,
          0.00459061377, 0.000250427867, -0.00732905604, -0.00993120205,
          -0.0255063362, 0.001356847, -0.0120256366, -0.00527922716,
          -0.00322479848, -0.00258185924, -0.00168413902, -0.00722983759,
          -0.00998509303, 0.00121558632, 0.00648553204, 0.0022288512,
          0.00365007063, 0.0014624683, 0.00158994435, -0.00139277393,
          -0.00961783249, -0.0057518566, 0.00592862815, -0.0241855625,
          -0.00632891897, -0.00609583268, 0.000855763385,
          -0.000560458342, 0.00189259811, -0.00471032923, -0.00282744737,
          -0.0222411994, -0.0198488794, -0.00299152103, -0.0060541546,
          0.00116937573, -0.00117320346, 0.00200375658, -0.00339572458,
          0.000803312869, -0.0201648418, 0.00874299277, 0.000926555949,
          -0.00210207002, 0.00135547097, -0.00941335224, 0.000338775426,
          -0.00716505619, -0.0025597217, 0.00872577541, 0.00995691027,
          -0.00712322351, -0.0115858028, 0.000784847129, -0.010397438,
          0.00109961303, -0.00613717968, -0.00195767405, 0.00900466181,
          -0.022391405, -0.00169754901, -0.00196312042, 0.000713602756,
          -0.00432578893, 0.000618392311, -0.00281907874, -0.00125198334,
          -0.0226120371, -0.0127012841, 0.00788538903, 0.00471834,
          -0.0244971551, -0.0184397083, -0.021833973, -0.00748231448,
          -0.0041196472, -0.0149616953, 0.00141302554, -0.0070715691,
          -0.00428265939, 0.00036540677, -0.00751655223, 0.000741034048,
          -0.00320271472, -0.00130228966, 0.00143073651, 0.00727139367,
          -0.00108368392, 0.0127785904, -0.00714468583, -0.0217932388,
          -0.0143609866, 0.0016005967, -0.00296581257, 0.00697461283,
          -0.0152477641, 0.00495617418, 0.00418193731, -0.00436793175,
          -0.0128462296, -0.00522268377, -0.00506435987, -0.0107543441,
          -0.0140434038, -0.0200831443, 0.0102431215, 0.000567008334,
          -0.0043494706, -0.0202203169, -0.0024805998, -0.00272357487,
          -0.0133111682, -0.0211515836, -0.000740356802, -0.00250724168,
          -0.000146672799, -0.000802276598, -0.0196126476,
          -0.00520454068, -0.0022547741, -0.00612945855, -0.000226040182,
          0.0103687812, 2.05871929e-05, 0.0111503573, 0.0190917477,
          0.00387844606, -0.00121992943, -0.00528785586, -0.00662163179,
          0.00895669311, -0.0235667713, 0.0102757309, 0.00388641795,
          -0.00026379677, -0.00506870449, 0.000584105903, 0.00331711886,
          -0.000727029052, -0.0239315685, -0.014177938, 0.0101762181,
          0.0203223526, 0.00822326075, 0.0260747857, 0.00870914385,
          0.014358555, 0.0108695934, -0.0132431276, -0.00900695473,
          -0.00851855054, -0.00499895075, 0.00147230714, 0.00218696962,
          0.00122568547, 0.00874993205, 0.00637990236, -0.0102831852,
          -0.00423033116, -0.00578024052, 0.0084314961, 0.00559860049,
          0.0299842153, 0.00872629043, 0.0292204786, 0.0239898972,
          -0.00423033116, -0.00564167323, 0.00848974846, 0.0164520741,
          0.00330593134, 0.0156860873, 0.00584382378, 0.0112912506,
          0.0064484803, -0.00610724231, -0.00177846698, 0.010063448,
          0.00999042019, -0.00101487082, -0.00961639546, 0.000118547592,
          0.00522225397, -0.000337281759, -0.000412288238, -0.0042007938,
          -0.00228559203, 0.00435817009, 0.00182852708, 0.00915681198,
          0.00386249926, 0.00980527233, 0.0116526149, -0.00374634191,
          -0.000359445112, 0.00390519947, 0.0088089956, -0.00326061575,
          -0.0110180629, -0.0018362531, 0.000473026419, -0.00182860321,
          0.000607837457, 0.014393514, 0.00232015038, 0.000450904568,
          -0.0123520195, -0.0230576526, -0.00501941098, -0.00343266199,
          -0.00276918779, 0.0170233026, 0.0217266362, 0.00324393623,
          -0.000674046052, -0.0172973778, -0.025179876, -0.00721294293,
          -0.00177966512, 0.000693182286, 0.0221111402, 0.0226152781,
          -0.000931797549, 0.00431308476, -0.0133310724, -0.0139757209,
          -0.00420530979, -0.00328295399, -0.0102099339, 0.0238979813,
          0.0182458218, 0.000471990294, 0.00106139935, -0.0202745516,
          -0.0136527456, -0.00240862067, 0.000579684216, -0.00765416445,
          0.0176358819, 0.0269008074, 0.00464156037, -0.00161087408,
          -0.0224888958, -0.0159073733, -0.00465811696, 0.00459262216,
          0.000472517888, 0.0269730408, 0.0123099694, -0.00983955991,
          -0.0050889547, -0.0040781782, -0.00797636155, -0.00273871608,
          -0.00891153328, -0.0058815009, 0.0120362928, 0.0231299959,
          0.000915977522, 0.00378269725, -0.0203027427, 0.00279879081,
          -0.00404555211, 0.00598237617, -0.000391060836, 0.0221308935,
          0.0113143129, -0.012262499, -0.0126377326, -0.00347790262,
          0.00258381036, -0.00931800064, -0.0101890378, -0.00624344032,
          0.0111610843, 0.00393950986, -0.018453924, -0.00440866873,
          -0.00212924625, -0.0580904856, -0.00449091755, -0.00789529551,
          -0.00555034261, 0.0116778901, 0.010452209, -0.0088883806,
          -0.00176942698, -0.000801108428, -0.0110770576, -0.00255534425,
          -0.00437677093, -0.00406648498, 0.00780427223, 0.00311206211,
          -0.0185870826, -0.00272737048, -0.00118815317, -0.0135698868,
          -0.00556205632, -0.00363185303, -0.00705378456, 0.00252129952,
          -0.00165719388, -0.00937333051, 0.00168940763, -0.000442253193,
          -0.00146594306, -0.00495530479, -0.00785502605, -0.00769601669,
          -0.00179253716, 0.00762495399, -0.000376060314, -0.00186544016,
          0.00207851781, 0.00292410888, 5.32997547e-05, -0.00522585353,
          0.00409245631, 0.00739852479, 0.00405956851, -0.00689930143,
          -0.00131236983, 0.0028299815, -0.00459319912, 0.00108175981,
          -0.00133826025, 0.00734666316, 0.00269533135, -0.00495935651,
          -0.00540358433, -0.00345433713, 0.000581504195, 0.0137399826,
          -0.000115551498, -0.00714457547, -0.00215408439,
          -0.00494933454, -0.00546152983, -0.0112028727, -0.00572173297,
          0.00214109779, -0.00863498077, 0.00256223162, -0.00169946044,
          0.00261095748, -0.00543401623, -0.00411905348, -0.0124040041,
          -0.00099022442, 0.0047613671, -0.00749875046, 0.00395621732,
          -0.00107320934, 0.00197037961, 0.00283511891, -0.00360795413,
          -0.0173869859, -0.0167776346, 9.98719188e-05, 0.011677633,
          -0.005668208, -0.0121368365, -0.00829898007, -0.000275956292,
          -0.00634409534, -0.00856075902, -0.00150869356, 0.00648315856,
          -0.00711508747, 0.0067924927, 0.00304599735, 0.00617985707,
          -0.00329995388, -0.00864592008, -0.0162789859, -0.012725058,
          -0.00368266366, 0.00599713158, -0.00312788505, -0.00959750544,
          -0.000787950295, -0.00856513716, 0.00768497307, -0.0133908801,
          -0.0164871458, 0.00186544342, 0.00270258822, -0.00977409724,
          -0.0152732646, -0.00898724329, 0.0111840256, 0.0103867371,
          -0.0135724535, -0.00775080221, 0.00268759765, 0.000816612854,
          -0.00404699752, -0.00669689616, 0.0013305929, 0.0132503845,
          0.00527217146, -0.0118213054, -0.0156297684, -0.00911188405,
          -0.00239048479, -0.00480830064, -0.0162077155, -0.00138669857,
          0.0054676095, 0.0118713789, -0.0141813811, -0.00993562676,
          -0.00509831868, -0.00475899316, -0.00234653312, -0.00498471875,
          -0.00065918942, 0.0120972451, 0.00895425491, -0.0129311327,
          -0.0135445846, 0.00333172712, 0.00580982817, 0.00446377462,
          -0.00875241589, -0.0124636116, 0.00949080847, 0.00877179857,
          -0.0105774123, -0.0135894539, 0.000865815498, -0.00687396945,
          -0.00109167036, -0.0113696838, -0.0108794393, 0.00494727353,
          0.0126665058, -0.0104153035, -0.00410846388, 0.00465886062,
          0.00505673792, 0.00484117121, 0.000674373005, 0.00160834205,
          0.0128289275, 0.0139789535, -0.00994526874, -0.012142105,
          -0.00112370274, -0.00888898596, -0.00186423108, -0.00602162164,
          -0.00082132325, 0.0137807392, -0.00742934644, -0.00666728895,
          -0.0035115073, 0.0030100646, 0.00640880456, 0.00231410307,
          -0.00459008524, -0.0050496147, -0.00732890703, -0.00777260493,
          -0.00294380658, -0.00041002236, 0.00429404574, 0.00684204232,
          0.00320623862, 0.000496051041, -0.00128249603, -0.00922763813,
          -0.00758858584, -0.00216454011, 0.0011033183, 0.00245307642,
          0.00405011233, 0.0027363277, -0.00468262332, -0.00671258569,
          -0.00718023628, -0.0075367731, 0.0006807092, 0.00253471825,
          0.00429307157, 0.00664717844, 0.00405521272, -0.00154528487,
          -0.00463772938, -0.00768390577, -0.0119626038, -0.00458946172,
          -0.00105668092, 0.00014098479, 0.00658929255, -0.000338917976,
          -0.000452224282, -0.0025963909, -0.0123847127, -0.0135946274,
          -0.00784320198, -0.00272620516, 9.118663e-05, 0.0123458812,
          -4.30946748e-05, -0.00125521619, -0.00630356185, -0.0137364315,
          -0.0125188464, -0.00158060517, 1.75364148e-05, 0.00105823006,
          0.00762117002, 0.000809281657, -0.000799500267, -0.00557835074,
          -0.012813339, -0.0124833724, -0.0053741103, -0.00139723008,
          0.000755466055, 0.0103243198, -0.000402275648, -0.00210164348,
          -0.0116958013, -0.0127602387, -0.012904129, -0.0102043608,
          -0.00388303655, -0.00440161629, -0.00284577184, -0.00260452763,
          -0.00413588993, -0.00941296853, -0.0129681332, 0.00506931264,
          0.0023077277, 0.00725550763, 0.00183963415, 0.000150648892,
          -0.00205047405, -0.00381970406, -0.000650869275, 0.00461096549,
          -0.0126028247, -0.0111825364, -0.0054837917, -0.00491161225,
          -0.00318272971, -0.00426654844, -0.00510914298, -0.0162055846,
          -0.0125581613, -0.00215736963, -0.00359060708, 0.00300313672,
          1.7102886e-05, -0.00258773239, -0.00170050235, -0.00344211818,
          -0.00798550341, -0.00164606888, 0.00486822799, -0.00338762999,
          -0.00623443536, 2.59743138e-05, -0.00416798657,
          -0.000269785698, -0.00325230602, -0.000181729338,
          0.00459390506, 0.00128403481, -0.00915415399, -0.0135584576,
          -0.000518900517, -0.0276073981, 0.000381152233, -0.0024405634,
          -0.00076745986, 0.00164458994, -0.00255243829, -0.00313775241,
          -0.00435940921, 0.000240261536, -0.00757176336, 1.18738044e-05,
          -0.00364609365, -0.00152451103, -0.000176939167, 0.00118955283,
          -0.0033364913, -0.00576238567, -0.000217529945, -0.0242923275,
          0.000336976023, -0.00301121548, -0.00126919663, 0.00116805267,
          0.000194052103, -0.00658715656, -0.00580985053,
          -0.000682489306, -0.0190725159, -1.08196109e-05,
          -0.00244628382, -0.0014371759, 0.000386704778, 0.00259367889,
          -0.0100442562, -0.00594045362, -0.0171319526, -0.0390819125,
          -0.0194121152, -0.00346134906, -0.00554658379, 0.00778070698,
          -0.00128304481, -0.00286646537, -0.00305215665,
          -0.000322215812, -0.0169624612, -2.833894e-05, -0.00237969821,
          -0.00154912216, -0.00217892369, 0.00586894155, -0.00986371655,
          -0.0110304272, -0.0130580971, -0.0180445481, -0.0219414961,
          -0.00218189415, -0.00236072694, 0.00250263396, -0.00142151013,
          -0.0117185321, -0.00722254952, -0.00272853347, -0.0201418027,
          -0.00727887033, -0.00617608102, -0.00729247229,
          -6.56613192e-05, 0.000961371523, -0.0204425119, -0.00765292021,
          0.0120838415, 0.00262654084, -0.00191258674, -0.00194718048,
          -0.00759740127, 0.000940865488, 0.00217266544, -0.00929370988,
          -0.00616524694, -0.00213690125, -0.00874700677, -0.00510756671,
          -0.00404932909, -0.00561734242, 0.00236834679, 0.00952657498,
          -0.0112749506, -0.00826612394, 0.00982222985, 0.00759530999,
          -0.00065708789, 0.000709101674, -0.00726171816, 0.0100259362,
          -0.00570799224, -0.0125266034, -0.00830676686, 0.00285182265,
          0.00115241914, 0.000699063065, 0.0093907956, 0.00384169561,
          -0.00555858295, -0.0034625188, -0.00943827536, -0.00609007291,
          0.000576152292, 0.0161244757, 0.00295535312, 0.0143818716,
          0.00917715207, -0.0034625188, -0.00111579115, -0.00186047121,
          -0.000395235344, 0.00366039085, 0.00366142765, 0.000969390792,
          0.00874458905, 0.00496332161, -0.00096206303, -0.0034625188,
          0.00356733613, 0.00546930078, 0.00151037832, 0.0179346576,
          0.00297270692, 0.0180003718, 0.0112802638, -0.0034625188,
          0.00268993271, -0.0103158243, -0.00916852802, 0.000107418404,
          0.00246726279, -0.000474768138, 0.00262835622, 0.000770437706,
          0.00267217658, 0.0106415162, -0.00845479779, -0.00662150932,
          -0.00470389798, -0.0246579759, -0.00245785876, -0.00565119786,
          -0.00711335521, 0.0104478039, 0.00178631663, -0.000680334633,
          -0.00379475113, 0.00224040658, 0.00728482241, 0.00136168452,
          0.0132026644, 0.00462668156, 0.00284530362, 0.00509621156,
          -0.0124183241, -0.0159252267, -0.00304495171, -0.0231365208,
          -0.000592504395, 0.00290046423, 0.00482402323, 0.00471033528,
          0.0212895032, -0.0115967542, -0.00877503306, -0.0115572223,
          -0.032627169, -0.00175058004, -0.00669214875, -0.0134864952,
          0.0249564648, 0.0272056013, -0.00735939573, -0.00812069327,
          -0.0114952568, -0.0207719486, 0.00143322605, -0.00106281927,
          -0.00728371972, 0.0283784978, 0.0165166017, -0.0150117055,
          -0.0175982974, -0.0119907735, -0.0380387492, -0.00563853281,
          -0.00512921531, -0.000151957778, 0.0179743357, 0.0228720382,
          -0.00271860114, -0.00617812341, -0.0110754101, -0.0330281071,
          -0.00221166178, 0.00496455608, 0.00543926097, 0.0218190271,
          0.022088673, -0.00707055442, -0.00808934867, -0.0152553385,
          -0.019090414, 0.00148753077, 0.00546091795, -0.00120244757,
          0.0222919118, 0.0135553582, -0.0124482354, -0.0156610608,
          -0.00575348223, -0.00781987142, -0.00537364138, -0.00327693042,
          -0.0020452342, 0.014162112, 0.0177691523, -0.00292105903,
          -0.00675583957, -0.00879198872, -0.0269003119, -0.00592336198,
          0.0119378725, 0.00630344078, 0.016618073, 0.012366781,
          -0.0193947889, -0.0190194044, -0.00285266479, -0.0115584843,
          0.000484524702, 0.00412921049, 0.000629568007, 0.0139519135,
          0.0102032265, -0.00658487901, 0.000945565815, 0.00153101771,
          -0.0113884425, -0.00228124368, 0.00448228838, -0.00172752619,
          0.0112847593, 0.00151677884, -0.00360263162, 0.00156673731,
          -0.00332641741, -0.015629882, -0.00376540679, -0.0032378044,
          -0.00597060751, 0.00130046159, 0.00810781494, -0.00808195118,
          -0.00221755495, -0.00178881839, -0.016732458, -0.000377765216,
          0.00485309446, -0.00559849944, 0.0107582742, 0.0012254857,
          0.000349951501, -0.00117479451, -0.00549514359, -0.0223144516,
          -0.00732823228, -0.00375892268, -0.00917799771, 0.00133402983,
          -0.00300329202, -0.00204148958, -0.000321984524, 0.00058685441,
          -0.00100449275, 0.000459386152, -0.00266709435, -0.00122113316,
          -0.00296354154, -0.00337646063, -0.00130075775, 0.00130570866,
          0.00117730675, -0.0118691102, 0.00387781882, 0.00389148551,
          0.00212406833, -0.00348332408, -0.00282861502, -0.000892615644,
          -0.00220178766, -9.3130504e-05, -0.00769430073,
          -0.000552959798, -0.00270594354, -9.63087368e-05,
          -0.00271049701, -0.00311346026, -0.00314929406, -0.00302024349,
          0.00074864272, -0.0130733363, 0.00201736344, 0.000517980661,
          0.00275355531, -0.00313447136, -0.00539865438, -0.00166207552,
          0.00261130976, 0.00435171789, -0.00538028404, 0.00957867969,
          0.00737236114, 0.00378381601, -0.00477581751, -0.00671503786,
          -0.0148508064, -0.0123291276, -0.00347316405, 0.0123041132,
          0.00174308824, 0.000950599788, -0.000650877017, -0.00568294898,
          -0.00393413613, -0.00336972671, -0.00397774996, 0.00400371477,
          -0.00571740931, 0.00617270637, 0.00468883757, 0.00287165749,
          -0.00308305491, -0.0134887975, -0.0131153334, -0.0126585178,
          0.00107338012, 0.0135278776, 0.00135225779, 0.00228502112,
          0.0017880582, -0.0125600304, -0.000697057869, -0.0122748548,
          -0.0134498626, -0.0106711173, 0.00479730498, 0.00112764922,
          -0.0028052628, -0.00497334963, -0.000302345201, -0.00041220049,
          -0.00978051312, -0.00895582139, -0.00440418907, 0.00456139212,
          0.000704958686, -0.00215190509, -0.00645330455, 0.000316168414,
          -0.0106356721, -0.0171638671, -0.0149446186, 0.000549637072,
          0.0118239624, 0.000184658042, 0.00210151938, -0.00260152994,
          -0.0103019672, -0.00983569305, -0.0125557985, -0.01053927,
          0.000790610095, 0.0068245139, 9.67083033e-05, -0.00035233135,
          -0.00581643777, -0.00988119096, -0.00336712296, -0.0116649102,
          -0.00733087724, 0.00298228813, 0.012534, 0.00285470835,
          0.000767680351, 0.000163752557, -0.000846736191,
          -0.00241152267, -0.00336789899, -0.00467196619, 0.0017247959,
          0.0100293383, 0.00213836762, 0.00243533798, 0.00279139332,
          -0.000168990591, -0.00995816756, -0.00962818135, -0.0111893043,
          0.0032493805, 0.0122611895, 0.00330286287, -0.000354814227,
          -0.000692407019, -0.00964054931, -0.00827290025,
          -0.00362587138, -0.00379048544, 0.0026405449, 0.0141183082,
          0.00160478544, 0.000235754749, 0.000258504006, -0.0079438379,
          0.00880778488, -0.00402398035, -0.00100572896, 0.00098209735,
          -0.0126760434, 0.00243246742, -0.00121108757, -0.000638992002,
          0.00885643065, 0.00773499114, -0.000223975803, -0.000325217086,
          0.00421853829, -0.000690958055, 0.00479914341, -0.000574854435,
          7.63558564e-05, 0.00841890089, -0.0199919418, 0.000721331802,
          -0.00168967375, 0.00388734369, -0.0135846613, -0.000261275884,
          -0.0033974566, -0.00277707609, -0.020291904, -0.0190287996,
          -0.000377848512, -0.00184683385, 0.00606104173, -0.00182931416,
          0.00583692826, -0.00127964467, 0.00174851611, -0.0196150672,
          0.00307211606, -0.00148178008, -0.00254783663, 0.00205704127,
          0.000604784524, 0.00154461258, -0.0030287432, -0.00444091437,
          0.00310414913, 0.0045878645, -0.00501469569, -0.00315941893,
          0.00232214807, 0.000194194989, -0.00218277611, -0.0063653579,
          -0.0120402593, 0.00418433081, -0.0241272338, -0.0054080612,
          -0.00290239067, 0.00254536304, 0.00193950057, 0.00228766561,
          -0.00295732683, -0.00162578246, -0.0240982212, -0.0230329521,
          -0.0151152713, -0.00444502523, 0.00278703333, 0.00293068774,
          0.000192165899, -0.00466818968, -0.00707140705, -0.0226100162,
          0.00432210369, -0.00844146591, -0.00456786761, -0.000855100167,
          -0.00212904043, -0.00371319638, -0.00718491711, -0.0148071973,
          0.00425838446, 0.00915185083, -0.00778051699, -0.00494046463,
          0.000784592354, 0.000749657163, 0.000361071725, -0.00584181305,
          -0.00766885234, 0.00790644903, -0.0230841897, -0.0180606619,
          -0.00612083962, -0.000310576666, -0.00367152994, -0.0041031139,
          -0.00566964457, -0.0115844784, -0.0230093636, -0.0218380168,
          -0.0183496252, -0.00757015357, 0.0012040179, 0.00199782802,
          -0.000115230243, -0.00476642884, -0.00477571832, -0.0219436381,
          0.00774152763, -0.00489583705, -0.00528349215, 0.00231697806,
          -0.00602287147, 0.00215718406, -0.0049276771, -0.00168454659,
          0.00728626316, 0.0149815558, -0.00664260844, -0.006807887,
          0.00254289806, -0.00433492986, 0.00312114996, -0.00394908572,
          -0.00189824007, 0.0142163504, -0.0285223611, -0.0112331714,
          -0.00690150727, 0.00226389314, 0.00187926542, 0.00266904617,
          -0.00496313209, -0.00109096488, -0.0286156852, -0.01713131,
          -0.0080180401, -0.00652871421, 0.0026575306, 0.0037954892,
          0.00264379499, -0.00486597139, -0.00152823736, -0.016406497,
          -0.00990626216, -0.00513384538, -0.00353288627, 0.00163695635,
          -0.00535531249, 0.0020526147, -0.00141577912, -0.00201086886,
          -0.0123082744, 0.00969900936, -0.00591593189, -0.00709126098,
          -0.00157044863, -0.0216559395, -0.00831715763, 0.00245914469,
          -0.00914189406, 0.0031118975, -0.0232192613, -0.0044465051,
          -0.00255864323, 0.00213259994, -0.00394934462, 0.00179528864,
          -0.00131962739, -0.00123526319, -0.0229791552, 0.000648006971,
          0.00470202835, 0.00952460524, 0.000944249739, -0.0221932456,
          -0.000711561763, 0.00961766951, -0.00810887571, -0.00277179177,
          -0.000843588728, -0.00863926485, -0.00169240881,
          -0.000176816524, -0.0155925872, -0.00147421344, -0.00231896224,
          -0.00355517236, 0.00158487842, 0.0144604463, -0.00262355059,
          0.000243159564, 0.000912439893, 0.00934335217, 0.00746519957,
          0.0164619703, -0.0104132826, 0.0182349291, -0.0144335749,
          -0.0118845077, 0.000141506956, -0.0015799948, -0.0148890074,
          -0.00144879043, 0.001596521, -0.00667548832, -0.0144080799,
          -0.0228390619, -0.0192228947, -0.0077749379, -0.00133166276,
          -0.0158933084, 0.000108785753, -0.007209918, -0.0131770577,
          -0.0230090506, -0.00905669667, -0.00273786578, -4.59856419e-05,
          0.0010714297, -0.00128730701, 6.77588396e-05, 0.00420839665,
          -0.00130102271, -0.0056200386, -0.00421675807, 0.0084406184,
          0.0200181827, 0.00354057713, 0.0189827904, 0.00721998885,
          0.0228424948, 0.0144780399, 0.00211296231, -0.0244124588,
          -0.00667632883, -0.00392111717, 6.71911257e-05, -0.00142907177,
          0.000452415843, -0.00411719084, -0.00856964756, -0.0232431795,
          -0.0138191711, 0.00845680479, 0.0207845829, 0.00626982003,
          0.0185223669, 0.0176050421, 0.0143308518, 0.0032307338,
          -0.00975606218, -0.00136276917, 0.00672624772, 0.0116134975,
          0.00171901623, 0.00217189547, 0.00181917392, 0.00645437557,
          0.00371753029, 0.00405183807, 0.00777135417, -0.00426679384,
          -0.00969332643, -0.00771403033, -0.0208026599, -0.0041795033,
          -0.00790566579, -0.00100233662, 0.00667249411, -0.00180095003,
          0.00944752805, 0.0160758328, 0.00314946217, 0.00462492974,
          0.00530640641, -0.000532407837, -0.00480913743, 0.00113168696,
          0.0111313369, 0.00299030752, -0.00176113122, -0.00637505762,
          -0.018581884, -0.00817590486, -0.0311576314, -0.0206182133,
          0.00577082997, 0.0193364564, -0.0100503825, -0.0182370041,
          -0.0142729422, -0.0268157236, -0.0150955115, -0.00559382746,
          -0.0028960323, 0.0153237199, 0.0202354956, 0.00102643715,
          -0.00172856264, -0.00881120283, -0.0168315116, -0.0157350693,
          0.0116948066, 0.00491633499, 0.0215370357, 0.0186872035,
          -0.00181382208, -0.0107914014, -0.00990527309, -0.0272070542,
          -0.0230590515, -0.0225756075, -0.0222782642, 0.014753283,
          0.0191839002, 0.008061192, 0.00546998437, -0.00466000987,
          -0.0157215502, -0.0172318313, 0.00593845174, -0.00184245023,
          0.0181315467, 0.0141418818, -0.00257738028, -0.00579363666,
          -0.00646712119, -0.0210760832, -0.0215629339, 0.0154638002,
          0.00514236046, 0.014555905, 0.0081289364, -0.0159415491,
          -0.0175513066, -0.0016629548, -0.012072552, -0.00112946588,
          -0.00238103722, -0.00342815672, 0.00931188557, 0.0129583152,
          0.0112625631, 0.0136166904, -0.00344991265, -0.0181159191,
          -0.0224452466, 0.00750280917, -0.000281074317, 0.0144822439,
          0.00812860485, 0.00142012211, -0.000633894582, -0.00146173849,
          -0.0129853925, -0.00407986483, -0.00326021714, -0.00564044062,
          0.00950405095, 0.00527121825, -0.00530242547, -0.00351809291,
          0.00134665985, -0.0168986768, 0.00148307858, -0.00544413319,
          -0.00517760124, 0.00642603775, 0.000569006952, -0.00412746472,
          -0.00688470621, -0.00616088416, -0.0231232978, -0.00719799567,
          -0.00869332533, -0.00954873487, 0.000675608695, 0.00497923326,
          0.00204488612, -0.00212236959, -0.0060843979, -0.0523963012,
          0.00206492189, -0.0239402633, -0.0112497816, 0.00648789061,
          0.000722665631, -0.0083092805, -0.00605993904, -0.00469372747,
          -0.0202305242, -0.00595934503, -0.00823601708, -0.00802640989,
          0.000553079299, -0.00331157469, -0.0043150275, -0.00692568021,
          -0.000894508616, -0.00905225798, -0.00182153296,
          -0.00534152519, 0.00218196819, -0.0032728326, -0.00381221576,
          -0.0104585923, -0.00792465732, 0.000144103135, -0.013298695,
          -0.000335186109, -0.0023007812, 0.00936307944, -0.00383211696,
          -0.00322709535, -0.00214520027, -0.00481427088,
          -0.000762664655, -0.00824401062, -0.00153025112,
          -0.00584424194, 0.00495708687, -0.00324431248, -0.00383739313,
          0.00026303748, -0.00188456243, 0.000962931546, -0.0123875616,
          -0.000222532413, -0.00313214795, 0.0110006416, -0.0038091992,
          -0.00503661809, -0.00814405549, -0.00376992929, 0.00285134697,
          -0.00508134253, 0.000876091362, 0.00357200718, 0.00751681626,
          -0.00485881977, -0.0117839426, -0.0153067382, -0.0118765086,
          0.000623667031, 0.0105231088, 2.86966906e-06, -0.00230881828,
          0.000160333118, -0.011156084, -0.0049758805, -3.83228053e-06,
          0.00165251689, 0.00502025383, -0.005266489, 0.00117804843,
          0.00322158961, 0.00776051637, -0.00483690621, -0.0117192389,
          -0.00778355496, -0.00390505046, 0.00230752514, 0.0131891081,
          9.55827563e-05, -0.00232376554, -7.22487748e-05, -0.0112836864,
          -0.00438673329, -0.0180310868, -0.00940218568, 0.00151172641,
          0.00229724473, 0.000957569689, -0.000429579813, -0.00060967321,
          -0.0039735497, -0.00240852986, -0.00794018991, -0.00423404854,
          0.00161645422, 0.00094104145, -0.00152023812, -0.00150129036,
          -0.00394350104, -0.00243613054, -0.00367569318, -0.010263213,
          -0.00463270862, 0.00157887768, 0.00282920781, 0.0019562568,
          -0.00131861412, -0.00223778747, -0.00414592493, -0.00214340561,
          -0.0065002027, -0.00225209026, 0.00052544463, -0.000264517323,
          -0.00129125849, -0.00213502767, -0.00533071859, -0.0020031333,
          -0.00383055815, -0.00707846228, -0.00821104366, 0.00329839042,
          0.0046830955, -0.00121152506, -0.000792816922, -0.00145320932,
          -0.00417296356, -0.00123201474, -9.08171132e-05,
          -0.00123448798, 0.00207357435, -0.00274833478, 0.00142337033,
          0.00135072879, -0.000478848146, -0.00275193108, -0.00394539675,
          0.0024172822, -0.00136211899, 0.00428479584, 0.00390106486,
          -0.0020223679, -0.000495399407, -0.000480554387,
          -0.00300227851, -0.000961067097, 0.00656890357,
          -0.000468023791, 0.00385588082, -0.00527238613, 0.00115719321,
          0.00272159465, 0.0011160014, -0.00158305082, -0.0279585961,
          -0.00424530497, -0.00403930899, 0.00299483049, 0.00354811759,
          0.00045580673, -0.00184487621, -0.00156551774, -0.0275859442,
          -0.0282626972, -0.0037376273, -0.00229611713, 0.00403308868,
          0.00625108881, 0.00405846117, 0.00143702049, 0.00218593702,
          -0.0275947191, 0.00080445793, -0.00332781742, -0.0032640982,
          0.00284544565, 0.00571431499, 0.00322426553, -0.00737169618,
          -0.00860205758, 0.00116114609, 0.000811871374, -0.00138243684,
          -1.53001074e-05, 0.00371758011, 0.00661233999, 0.00598511612,
          -0.00218202453, -0.00432455493, 0.00136666954, -0.0324359611,
          -0.00611878186, -0.00142716023, 0.00104820158, 0.00722657004,
          0.0009430137, 1.79960307e-06, -0.00119867735, -0.032270629,
          -0.0325204469, -0.0139828119, -0.00256457063, 0.00101480994,
          0.0122810081, 0.000320591469, -0.000771709427, -0.00497136591,
          -0.0323574431, -0.00415068772, -0.00365877827, -0.000807109522,
          0.000935157819, 0.00669166492, 0.00116855605, -0.00161887147,
          -0.00555583276, -0.0037154553, -0.00408796594, -0.00933656096,
          -0.00243244274, 0.000617735088, 0.0108116157, 0.000569845841,
          -0.00244010543, -0.00962226652, -0.00409838324, -0.031877704,
          -0.0141669838, -0.00360681233, -0.00162789971, 0.0058552227,
          -0.00232966081, -0.00255707465, -0.00739020435, -0.0318673961,
          -0.0316881351, -0.0111766094, -0.00420613866, -0.000634795986,
          0.0101061128, -0.000884208421, -0.00208588783, -0.0030720334,
          -0.0317746513, -0.00380762829, -0.0138681838, -0.00370012922,
          -0.0021868709, 0.00558304368, -0.0023662739, -0.00336790271,
          -0.00968685839, -0.00369846425, 0.00394066097, -0.00485319924,
          0.00118947425, -0.000391351263, 0.010143158, -0.00122941763,
          -0.00299347728, -0.00546888495, -0.00312616723, -0.0334175117,
          -0.00617829384, -0.00456402916, 0.000393181952, 0.00616561947,
          0.00046400135, -0.00252752402, -0.000872112752, -0.0334756263,
          -0.0234399866, -0.00255569979, -0.00278688967, 0.000563910115,
          0.0076422547, 0.000428226485, -0.00238457485, -0.000785391021,
          -0.0232231896, 0.00590552995, -5.38482236e-05, -0.00238135364,
          0.00021164144, 0.00438921293, -3.98096272e-05, -0.00342691364,
          -0.00527607091, 0.00094669481, 0.00687247515, 0.000892088166,
          -0.00248816027, 0.000386349158, -0.00628487999, 0.00066006108,
          -0.00316865486, -0.00147588225, 0.0068509751, -0.0311495606,
          -0.000824427349, -0.000793999818, 0.000539594213,
          -0.00106362684, 0.000324406632, -0.000814125815,
          -8.70463846e-05, -0.0310605727, -0.0152212922, 0.000365524029,
          0.00537051354, -0.00462728972, -0.0403423384, -0.00101762777,
          0.0122794127, 0.00299153267, -0.0165579282, -0.0155309094,
          0.000171495514, 0.003221903, 0.000159553194, 0.000323161366,
          0.000349778769, -0.00123968138, 0.00165319897, -0.0151649024,
          0.012018444, 0.0205644146, 0.0252237786, 0.00602856698,
          -0.0181218386, -0.0040039653, 0.00966733415, -0.00467456272,
          0.0104396343, -0.0204908252, -0.00818147138, -0.00395886647,
          -0.0046871691, -0.0107122753, -0.00314637041, 0.00214922009,
          -0.00173264684, -0.0204828661, -0.0266285017, -0.0123272371,
          -0.00996800512, -0.00474497117, -0.0107810618, -0.00512740016,
          -0.00409706309, -0.0015919772, -0.0279558636, 0.00222517923,
          0.00332425837, 0.0105598262, -0.00318029895, -0.00899535604,
          -0.00596000534, -0.00292664068, -0.00722374953, 0.00117365655,
          0.0130024813, 0.0148580344, 0.0199624524, 0.00824966189,
          0.0085692713, -0.0048295958, -0.00150575605, -0.00638313033,
          0.0130024813, -0.0282259565, 0.00381518668, 0.00243102573,
          -0.00137370103, -0.00554610509, -0.000545871328, 0.00115135324,
          0.00115298247, -0.0283024721, -0.0156961009, 0.0168836135,
          0.0220733006, 0.00550627476, 0.019106837, 0.00661834888,
          0.0165388286, 0.00956869125, -0.0139209209, -0.00568601443,
          0.00638139201, 0.00932416227, 0.00132177374, 0.00332200667,
          -0.00232798606, 0.00397000508, 0.0047305068, -0.005808488,
          -0.00437869783, 0.00875178911, 0.0144326519, 0.00583975762,
          0.0248764809, 0.00835750252, 0.0251135081, 0.012046665,
          -0.00437869783, -0.00231339619, 0.00820646062, 0.00891434215,
          0.00346352905, 0.00680028275, 0.00276527344, 0.00105585007,
          -0.00284771528, -0.00147225859, 0.00861557946, -0.00079329469,
          -0.00447951211, -0.0027713289, -0.0153403925, -0.00559835602,
          -0.0201641209, -0.0142073929, 0.00490860455, 0.00254888344,
          -0.0047349236, -0.00541765569, 0.00223589479, 0.0138516389,
          0.00522583071, 0.0167117398, 0.00514543848, 0.00169866625,
          0.00561066438, -0.00794581324, -0.0117113879, -0.0052101966,
          -0.0170715526, -0.00199515605, 0.00268789311, -0.0016991481,
          0.00387850031, 0.0179675426, -0.00640780013, -0.00849503372,
          -0.00574716507, -0.0256695002, -0.014576667, -0.021247413,
          -0.0185839515, 0.0134107405, 0.0224074572, 0.00437462749,
          0.00743945129, -0.00199150247, -0.0154548138, -0.0121638468,
          -0.00221081241, -0.00463975267, 0.0228394438, 0.0128609343,
          -0.0153901093, -0.00748754712, -0.00495659141, -0.0266664289,
          -0.0079330774, -0.0107214674, -0.00698311627, 0.00981449336,
          0.0221976638, -0.00853514578, 0.00127205986, 0.00222198432,
          -0.0126779368, -0.0127308853, -0.0106725842, -0.0048150965,
          0.0252868943, 0.0173548441, 0.0110728787, 0.0163989179,
          -0.0036794194, -0.0204837751, -0.0156764016, 0.00162347336,
          -0.000712626439, 0.0165346898, 0.00809502788, 0.00313895009,
          0.00475980388, -0.000421600736, -0.0174295269, -0.00575878751,
          0.00128161418, -0.00163233653, 0.00848791841, 0.0183861144,
          0.00235745986, 0.0101676658, -0.000644349086, -0.0213308372,
          -0.0150382174, -0.0106608449, 0.00251319329, 0.021312099,
          0.00894983485, 0.00258423574, 0.00647426071, -0.00104615104,
          -0.0205032267, -0.0185098089, -0.00333915208, -0.00211920566,
          0.00960526988, 0.00493509648, 0.00113775837, 0.00427288795,
          -0.00373050221, -0.0302355159, 0.00146482687, 0.00178380415,
          -0.00602094363, 0.00558660226, 0.000307103619, -0.0071772621,
          -0.00165540422, -0.00322731235, -0.0247037709, -0.00310464157,
          -0.00260532065, -0.00457003573, 0.000269702869, 0.00427984959,
          0.00203266996, 0.00683486881, -0.0136346715, -0.0491050668,
          -0.0267823711, 0.00326769683, -0.00883957557, 0.00448245881,
          0.000192464562, -0.00536153978, 0.000102714243, -0.00451191328,
          -0.0247992221, -0.00266295276, -0.00244780397, -0.00873514824,
          0.000306496513, -0.0047613536, 0.000662143575, 4.88972946e-05,
          -0.000104199018, -0.0111973155, -6.3433632e-05, -0.00122106634,
          0.00703617185, -0.00473168399, -0.0052580242, 0.00323954155,
          0.00230884412, 0.000598467421, -0.014425749, 0.000900362851,
          0.00166228355, 0.00871924032, -0.00524427136, -0.00467513734,
          0.00071235717, -0.000617803831, -2.90005555e-05,
          -0.00717151538, 0.000191693034, -0.00235090032, 0.00188190362,
          -0.00466168253, -0.00524410652, 0.0043753311, 0.00719467876,
          0.000249858887, -0.0151932919, 0.00199637073, 0.0018607222,
          0.00842230208, -0.00526431389, -0.00873031002, 0.00255675917,
          0.00455156155, 0.000574904552, -0.00893123075, 0.00198119716,
          0.0046706344, 0.00835882127, -0.00594117958, -0.0153233707,
          -0.00188845373, -0.000410600187, -0.000375661155,
          0.00741696218, -0.00109670288, -0.00197372632, -0.00295120291,
          -0.0151533643, -0.00594117958, 0.00493629929, 0.00622228812,
          -0.000436736475, -0.00985417236, 0.00568748731, 0.00653312448,
          0.0117422603, -0.00604729028, -0.0151340663, 0.00116668863,
          0.00164399005, -0.00186831201, 0.00914403517, -0.00049706141,
          -0.00253952201, -0.00255920598, -0.0148377772, -0.0129413791,
          -0.00337679219, -0.000993110356, 0.000272964593, 0.00732136657,
          0.000521144422, -0.00127890136, -0.00546414079, -0.0131728994,
          -0.0126471501, -0.00644281833, -0.000958885998,
          -0.000433565379, 0.00688110618, -0.000453117274, 0.00233292789,
          -0.00226594624, -0.0125835966, -0.0124226483, -0.00464377878,
          -0.00142725068, 0.00127473881, 0.00949738175, 7.83994037e-05,
          -0.00198825705, -0.00687657204, -0.0125829885, -0.011723483,
          -0.00622912496, -0.000400669465, 0.00113959995, 0.0061830841,
          0.000209216538, 0.0032725702, -0.00269058719, -0.0117992656,
          -0.0121939303, 0.0035882066, 0.000564478629, 0.00260411925,
          0.0106116226, 0.00134112663, -0.000472715416, 0.000461057323,
          -0.0123338532, -0.0101089524, 0.00781773217, 0.00258075376,
          0.000236305132, 0.000286077644, -0.000584894617,
          0.000596634869, -0.000215626438, -0.0117306625, -0.00997811276,
          0.00180970156, -0.000675997057, 0.0032609289, 0.0102465414,
          0.00308237108, 0.000166465208, -0.000251009915, -0.0111927809,
          -0.00788744912, 0.00285244244, 0.0004948891, 0.000295533013,
          -0.00036430679, 0.000252849684, 0.00375489518, 0.00146352581,
          -0.011102722, -0.0029290081, 0.000992401736, -0.00206116354,
          0.00312618841, -0.00209291908, 0.00303151901, -0.00642390689,
          -0.00522527471, -0.00282370416, 0.00039822355, 0.000812373473,
          -0.000683299731, 0.00493819313, -0.00102393376, 0.00637944834,
          -0.00504750479, -0.00418429356, 0.000956845237, 0.000443975703,
          -0.00169765437, -0.00508612953, 0.00313424412, -0.00406418368,
          0.000608837698, -0.00705341715, -0.00385565893,
          -6.96401039e-05, 0.0013433916, 0.000458928727, -0.00237545744,
          0.00610665232, -0.00260342215, 0.00543401064, -0.00372344279,
          -0.000941658858, 0.00062565488, -0.00745875714, -0.00186660967,
          -0.00226515904, 0.00259437645, 0.00146021484, 0.00283557153,
          -0.00404873351, -0.00646091765, -0.00708778156, -0.00446824403,
          -0.00620528404, -0.00364081934, 0.00306075788, 0.00569296675,
          0.00315360399, -0.00421313848, -0.00951848924, -0.00439745933,
          -0.00412550336, -0.00169016432, -0.00248499517, 0.00321263261,
          -0.00118089304, 0.00285413768, -0.00225007953, -0.00267620641,
          -0.00422980264, -0.00078572589, -0.00635594595, -0.00561002037,
          0.00420959014, 0.00049641513, 0.00268093264, -0.000210053506,
          -0.0020786908, -0.00133452844, -0.0109802261, -0.0136968615,
          -0.00572514674, -0.00240349048, -0.00335121783, -0.00280844676,
          -0.00540473824, -0.00968173891, -0.0109395655, -0.00198630663,
          -0.00276347343, 0.00409577601, 0.00154086342, 0.00273708371,
          -0.000464639132, -0.00592227047, -0.00633548619,
          -0.00187488459, -0.00492907874, -0.011000324, -0.00692325225,
          -0.000360324193, -0.00678359577, -0.00491829868,
          -0.00286899437, -0.00603619218, -0.00526405545, 0.0051868814,
          -0.00309924665, 0.00334639591, 0.00289795571, -0.00405552331,
          -0.000845020229, -0.004420151, -0.00302212732, 0.00524012698,
          -0.00414478546, -0.000725693943, -0.00321908784,
          0.000118923868, -0.0105588017, -7.17886433e-05, -0.0064905677,
          -0.0098784063, -0.00487171859, -0.00127239758, -0.00135062682,
          -0.00535816187, -0.000106981133, -0.013018135, 0.00028446308,
          -0.00668221945, -0.00672822166, -0.00129379751, 0.00903901272,
          -0.00147807598, -0.00358611695, 0.000281801593, -0.0162234772,
          0.000137444222, -0.00652585877, -0.00402511237, 0.00902179535,
          0.00927289575, -0.00312077068, -0.00649733422, -0.000146337989,
          -0.0137664527, -0.000168147104, -0.0068135988, -0.00374658033,
          0.00933352392, -0.00436298177, -0.00202956377, -0.00347205997,
          -0.000371726463, -0.0105313761, -0.000302276836,
          -0.00410881778, -0.00150015077, -0.0042729266, 0.0090654511,
          0.00146659708, 0.00445669424, -0.000418307987, -0.040327847,
          -0.00252784113, -0.00149098504, -0.00578570599, 0.0056618494,
          0.00794420484, -0.00666172104, -0.00576387113, -0.000233436571,
          -0.00979894213, -0.000226973789, -0.00499141216,
          -0.00221868651, 0.00804651435, 0.0114218537, -0.00846801605,
          -0.00531115709, -0.00242860522, -0.04041899, -0.000638626632,
          -0.0134413382, -0.00920215715, 0.0104724774, 0.00134604599,
          -0.00237943558, -0.00167180295, -0.00528559275, -0.0226576738,
          -0.00640074909, -0.00472312095, -0.00650177756,
          -0.000339546503, 0.00677169533, -0.00149950827, 0.0073711453,
          -0.00237018312, -0.00265228539, -0.00878912397, -0.00277367979,
          -0.00702235661, 0.00677169533, 0.00388665893, -0.00480683008,
          -0.0036470457, -0.00407901267, -0.0162011702, -0.00551271066,
          -0.0129027432, -0.00813377183, 0.00277020922, 0.00422981149,
          0.00108135107, 0.00232919445, -0.00118107884, 5.30954858e-05,
          -0.00740484055, -0.00722991303, -0.00534010818, 0.00403690198,
          -0.000845267088, -0.0019392157, 0.0032407227, -0.0014963306,
          -0.00235638022, -0.00361103239, -0.00157132151, 4.79524533e-05,
          -0.000845267088, -0.000845267088, 0.000154835012,
          0.00651386473, 0.00330531946, 0.00911931228, 0.00391238183,
          0.0094052935, 0.00662437826, -0.000845267088, -0.00509900134,
          0.00630790647, 0.00348277739, -0.000570446602, -0.00139993546,
          -0.0020405266, -0.000685867097, 0.000275724888, -0.0056510861,
          0.00128098612, 0.0149597218, 0.0132278195, 0.00520423427,
          0.00923771691, 0.00307424925, 0.00348239671, 0.00341842393,
          0.00129818334, -0.00225731824, -0.00200763671, 0.000453136134,
          0.00211152551, 0.00965140387, 0.00493235979, 0.0109627424,
          0.00882449374, -0.00225731824, -0.000475895271, -0.00270306552,
          -0.00392311765, -0.00369114522, -0.0201241355, 1.05985082e-05,
          0.00752169406, 0.00527361408, -0.00124072924, 0.00170170609,
          0.0159848277, 0.0148169715, 0.00332747167, 0.00382792181,
          0.00225665071, 0.000567527197, 0.00357119273, 0.00199443032,
          0.00120206911, 0.0122549729, 0.00783081353, -0.00422019279,
          -0.0185272358, -0.00103222614, 0.00111149531, 0.00333057716,
          0.00108544005, 0.00302610151, -0.00909080636, -0.00812257174,
          -0.00318150106, -0.0241240468, -0.00561623881, 0.00218696822,
          0.00450086966, 0.00414157985, 0.0211567245, -0.00780230807,
          0.00051452365, 0.00227332022, -0.0133297052, -0.0157571957,
          -0.0117859943, 0.00432860618, 0.0221871994, 0.00328425225,
          0.0045282403, -0.00420448743, -0.00350878714, -0.0181309544,
          -0.00224154838, 0.00819324981, 0.00744215352, 0.00388622656,
          0.0212899074, -0.0021765558, -0.00185676536, -0.00112613954,
          0.00110869482, -0.013836002, -0.00182605849, 0.0048888009,
          0.0217668395, 0.0217508469, -0.0014414225, 0.00623679301,
          0.00106509135, -0.0157279912, -0.014097603, -0.0107347071,
          0.00468313321, 0.0239842571, 0.00601154054, -0.0014165747,
          0.000911967538, -0.00321551017, -0.0184338372, -0.0164127424,
          -0.0155222444, -0.00681628799, 0.0073225433, 0.0165315345,
          -0.00209150393, 0.00365339895, -0.0041266582, -0.00985595398,
          -0.0203604382, -0.00847511645, 0.00183270592, 0.0176314507,
          0.00361389969, -0.00114716007, -0.000287024741, -0.00491144741,
          -0.015009379, -0.0106770014, -0.0100399889, 0.00112345885,
          0.006119119, 0.000785509532, -0.00562401582, 0.000942688261,
          -0.0161123984, -0.0351191498, -0.0223173555, -0.0154068228,
          -0.011704728, 0.00122573541, 0.000425645121, -0.0065841428,
          -0.00496190554, -0.00580281438, -0.025153175, -0.00516073871,
          -0.00633221772, -0.0103733996, 0.000538001186, 0.00352381007,
          -0.0114516243, -0.00144999695, -0.0232816376, -0.0373661891,
          -0.0242511816, -0.017286934, -0.0066153598, 0.0049355519,
          0.0111042745, -0.012169484, -0.00708427234, -0.00641916879,
          -0.0259231646, -0.00658236584, -0.00543255825, -0.00366571778,
          0.010925306, -0.00274531171, -0.00129829068, -0.00473191962,
          -0.000389664638, -0.00728317956, -0.000318214064,
          -0.00602117553, -0.00273380894, -0.00273191975, -0.00342689734,
          0.00142675592, 0.000999133685, 3.72777176e-05, -0.0143718543,
          0.00018367813, -0.0059745796, -3.7348243e-06, -0.00344769214,
          0.00851494633, -0.0035428938, -0.00647061132, -0.000647539797,
          -0.00196904433, -0.000718692085, -0.00627225079,
          0.000253539067, 0.00849772803, 0.00779377762, -0.00160388206,
          -0.0041973521, 0.000489348429, -0.0107254377, 0.000467583188,
          -0.00556905521, 0.00423875079, 0.00782129075, -0.00384037383,
          0.00398194557, 0.00768610369, 0.00153424393, -0.0126257539,
          0.00218075258, -0.00321060466, 0.0033881308, -0.0039479984,
          -0.0126922186, -0.00266277092, -0.00335212098, -0.00156206393,
          -0.00157888688, -0.00155111903, -0.00686773285, -0.00572155602,
          -0.0124311429, 0.0050661806, 6.80659286e-05, -0.00378204254,
          0.00386877847, -0.0106393555, 0.00378962816, -0.00219342159,
          0.00616999622, 0.00520455185, -0.00347265974, -0.00387237431,
          -0.00544187054, 3.64675216e-05, -0.00399517501, -0.00083395507,
          -0.00714168651, -0.00594614213, -0.00314022275, -0.00506785978,
          -0.0064491271, -0.00402831566, 0.00237022038, 0.000113112401,
          0.0014073092, -0.0045253546, -0.00720261596, -0.00529673649,
          -0.00334010203, -0.00459227152, -0.00226720166, 0.00273349718,
          -0.000307145936, 0.00163580047, -0.00251419959, -0.00643288903,
          -0.00339745381, -0.000301535387, -0.00509782881,
          -0.00207233708, 0.00267169438, -0.00478960481, 0.00321118394,
          -0.00293261092, -0.00422452763, -0.00183140417,
          -0.000515838095, -0.0052824351, -0.000222807532, 0.00223986665,
          -0.00218011439, 0.00318233971, -0.00170111365, -0.00418928219,
          -0.00175794947, -0.00308459369, 0.00219895667, -0.00261004665,
          0.00444564549, 0.00358169642, 0.00325373467, -0.00333732902,
          -0.00248628901, -0.00340556167, -0.000711251225, 0.00265406002,
          -0.00335462112, 0.0024792694, -0.00673084706, 0.00278278114,
          -0.00436935294, -0.00197393447, -0.00236651371,
          -0.000854669022, -0.000903024164, -0.0012992674, 0.004354442,
          0.00321560213, 0.00422178255, -0.00464540068, -0.0022069132,
          -0.00107178721, 5.97617691e-06, -3.1390613e-05, -0.0056686406,
          0.00375014031, -0.0064112721, 0.00312323286, -0.00606571836,
          -0.00272429036, 0.000111825626 ]
      - [ -0.00431094551, -0.00407464383, -0.0102132782, 0.00373801962,
          -0.00135751162, 0.00406058971, -0.00925391633, -0.00136501261,
          -0.00382188638, -0.00412817113, -0.00611817883, -0.0138753885,
          0.00354066934, -0.0014731352, 0.00385758071, -0.0100370599,
          -0.0014086283, -0.00272365659, -0.0040594521, -0.00467858138,
          -0.0126030305, 0.0038103254, -0.000717025192, 0.00461841328,
          -0.00912611745, -0.000553131336, -0.00413387455,
          -0.00231861975, -0.00350332377, -0.0123711471, 0.00384098222,
          -0.0011096705, 0.00220805872, -0.0105865784, -0.000531269063,
          -0.00265536946, -0.00837825052, -0.0106963906, -0.0162390191,
          -0.00163251488, 0.000551596866, 0.00165761809, -0.0118516134,
          -0.00319143757, -0.00836802647, -0.00517884223, -0.0050730519,
          -0.00818188302, 0.000727521838, 0.00753226737, 0.00255417638,
          -0.0110284491, -0.00401747553, -0.00591815403, -0.00512588117,
          -0.00777782872, -0.0140170744, -0.00108732458, 0.00115303416,
          -0.000333262666, -0.0114558423, -0.00247448729, -0.00386182009,
          -0.00406670431, -0.00529122818, -0.0095656272, 0.00137385249,
          0.00855568983, 0.00268903072, -0.00881487317, -0.00268176082,
          -0.00330970949, -0.0104676783, -0.00350069953, -0.00431850227,
          0.00355950394, 0.00129423407, 0.00121247093, -0.00797310378,
          -0.0039253952, -0.0114710396, -0.00288999383, -0.0042202021,
          -0.0104438849, 0.00642264122, 0.00383216911, 0.001443555,
          -0.005576286, -0.00273368158, -0.00365092978, -0.0112764556,
          -0.00515159871, -0.00814194325, 0.000479269511, 0.00803241227,
          0.000812104146, -0.00764844706, -0.00237501203, -0.0102558974,
          -0.0123000732, -0.00638763234, -0.0108232936, 0.000233242419,
          0.0075791073, 0.000540236884, -0.00866056699, -0.00243061036,
          -0.0109136356, 0.00358230947, -0.00390869239, -0.00813055877,
          0.00170542987, 0.000199941074, -0.00126431847, -0.0090894727,
          -0.00501727173, 0.00315166614, 0.00426482828, -0.00627564127,
          -0.00860323943, 0.00138763827, -0.000291434524, -0.0013348643,
          -0.0117975157, -0.00605204795, 0.00396749564, -0.012489792,
          -0.00665401155, -0.00798743032, 0.000413645495, 0.00443339348,
          -0.000198319234, -0.00753151905, -0.00282746577, -0.012702358,
          -0.00971948914, -0.00836694706, -0.00789187942, -0.00138759706,
          0.00518601108, 0.000108278866, -0.00822189264, -0.00281613879,
          -0.00923207309, 0.00261791772, -0.00375002692, -0.00275174435,
          0.000943636114, -0.000571880955, -0.000273483223,
          -0.00722324476, -0.00280257547, 0.00242017605, 0.00323067559,
          -0.00103463943, -0.00160185643, 0.0020983154, 0.00203954615,
          0.000371938688, -0.00718589826, -0.00429206109, 0.00319819688,
          -0.013693979, -0.00449371943, -0.00628121849, -0.00361375837,
          0.00337100052, -0.000626432535, -0.0050969678, -0.00173959625,
          -0.0119584948, -0.00575681496, -0.00207153661, 0.000239969813,
          -0.00166699965, 0.00595748657, -0.000721874239, -0.00250796205,
          -0.001814908, -0.00658668904, 0.002550276, -0.00401434628,
          -0.00619806349, -0.000208986137, -0.00124621543,
          0.000533070939, -0.00633872906, -0.00441693887, 0.00259748171,
          0.00546387862, -0.00249514007, -0.00308002485, 0.0026361458,
          0.00173736841, 0.00264711701, -0.0022511452, -0.00237636454,
          0.00441081263, -0.00440467009, -0.00241816649, -0.00112781243,
          -0.000566894014, -0.000487113663, 0.000135161594,
          -0.00328793284, -0.00218935404, -0.00530076539, 0.00275118509,
          -0.00309325964, -0.00273350556, -0.00161732524, 0.000252343219,
          -0.000895870791, 0.00133561331, 0.00264202664, 0.00286501576,
          0.00518965349, -0.00177954126, -0.00311366655, 0.00054412178,
          -0.00026192423, 8.04517113e-05, -0.0065529733, -0.00478592236,
          0.00444186153, 0.00395899825, 2.10235817e-06, -0.00610572053,
          -0.000202451192, -0.00162824662, 0.00038762606, -0.00887727365,
          -0.00541908853, 0.00387142156, 0.00299248402, -0.000718142139,
          -0.00429626089, -0.000321021391, -0.0017582404,
          -0.000681944657, -0.00263398653, 0.00230876589, 0.00348221953,
          -4.16227813e-05, 0.00208585896, -0.00271082064, 0.00128095329,
          -0.000137542709, -0.000307791517, -0.0059745484, -0.0040382673,
          0.000462793658, 0.006893693, 0.00136256963, -0.00501583656,
          0.00222538458, 0.00147689274, 0.00133487419, -0.00973149575,
          -0.00498496881, 0.00605985755, 0.00794068351, -0.00193480914,
          -0.00750144338, 0.0019980981, -0.000415369839, 0.00137064641,
          -0.00880633201, -0.00161084125, 0.00793159474, 0.00136874383,
          0.0038313244, -9.26761641e-05, 0.00231715199, 0.00385593623,
          -0.000266021612, -0.00910911709, -0.0076604425, 0.000619281374,
          0.00614740839, 0.00170994131, -0.00267701689, 0.000855870312,
          0.000353546755, 0.000610389863, -0.0103495074, -0.0014061823,
          0.00390034262, 0.00730979117, -0.00353992451, -0.00708022946,
          0.00129968533, -0.00367667503, 0.000325239322, -0.00654445821,
          -0.00122197706, 0.00734028593, 0.00634164875, 0.00212966744,
          -0.00490494259, 0.00263736583, -0.00323604676, -4.44106554e-05,
          -0.00925908703, -0.0033480227, 0.00628444692, 0.00405208953,
          -0.00162293902, -0.00396363763, 0.00162594893, -0.00204872247,
          0.00133282144, -0.00325834705, 0.00312290341, 0.00409239996,
          0.000277550891, -0.00730778137, -0.00983492658, 0.00306410389,
          0.001288014, 0.00154008402, -0.00169924728, 0.000775085704,
          -0.000268325064, 0.0112747671, 0.000592632976, -0.00642843638,
          0.0018508503, 0.00151243398, 0.00102733157, -0.0044544423,
          -0.00175373186, 0.0111680757, 0.00328040821, -0.00534900231,
          -0.0132332314, -0.000575106242, -0.00427175872,
          -0.000401411991, -0.00812877622, -0.00436408864, 0.00387096358,
          0.00662240433, -0.00567795476, -0.00980409607, 0.00232644915,
          0.00292168604, 0.0031100437, 0.00109160203, 0.00051863055,
          0.00742133427, -0.00304370327, -0.0136881303, -0.0165665038,
          -0.00322275492, -0.00393153541, -0.00153157872, -0.0067436453,
          -0.00585508998, -0.00246796594, 0.00369753013, -0.00418265443,
          -0.0108081354, -0.000280581036, -0.00274503767,
          -0.000236596214, -0.00743961614, -0.00407096045, 0.00460898504,
          0.00165356975, -0.00683272816, -0.0138856098, -0.00181703141,
          -0.00322541245, -0.000179612864, -0.00872779451,
          -0.00377255934, 0.00317865051, 0.000636149431, -0.00836903136,
          -0.0124662425, -0.0027470598, -0.00469974987, -0.00313913589,
          -0.0072962367, -0.00638816133, 0.00165993103, -0.000204048134,
          -0.00474435417, -0.0123851802, -0.00154668209, -0.00430518109,
          -0.00703968713, -0.0112731112, -0.00770865148, 0.00247921655,
          0.000883642875, -0.00855380297, -0.012487716, -0.00170285359,
          0.00100934715, -0.000259168999, -0.0108306045, -0.00466727139,
          0.00157291943, 0.00134091114, -0.00716163823, -0.013249971,
          -0.00070895208, -0.0023919791, -0.00292277103, -0.0114704529,
          -0.00326402485, 0.000434896763, 0.00196395069, -0.00305738859,
          -0.00879863836, 0.00039455251, 0.00163473352, -0.00553723238,
          -0.0107106846, -0.00711249653, 0.00258022104, 0.000649823283,
          0.000395342126, -0.00582492724, 0.000917124213, 0.000712007459,
          -0.00193573814, -0.0117538599, -0.00302445167, -0.000725507387,
          0.000838799751, -0.00427998323, -0.00696942024, 0.00109772186,
          -0.00256260391, -0.00226610294, -0.00740611833,
          -0.000650668691, 0.000473816821, -0.00737280864, -0.004334372,
          -0.00871986337, 0.000320462976, 0.00211770181, -0.00117832224,
          -0.0119178044, -0.00477585709, -0.00733883539, -0.0071876836,
          0.00233919872, -0.00269629969, 0.00348806637, 0.000610122632,
          0.00102162652, -0.00900923647, -0.00299774483, -0.00781482365,
          -0.00868904218, -0.00164998206, -0.00687735388, 0.000564645627,
          0.00418030191, -0.00115604931, -0.0104624555, -0.00321386149,
          -0.00995736383, -0.00800932385, -0.00276188506, -0.00647424487,
          0.00134292839, 0.00694786385, 0.00183493376, -0.00986476522,
          -0.00592623511, -0.00737895723, -0.00593054807, -0.00304024946,
          -0.00808939058, 0.00180233701, 0.00333370245, -0.000285698537,
          -0.0153229218, -0.0112887248, -0.00647196267, -0.00257714186,
          -0.0018946277, -0.00796723645, -0.000429934589, 0.00436033262,
          -0.000248809229, -0.0108595183, -0.00486714626, -0.00337962713,
          0.000103892082, -0.00247870851, -0.00783656072, -0.00251310365,
          0.000892145617, -0.00345654041, -0.015183989, -0.00990088191,
          -0.00218879967, -0.00465918984, -0.00113883545, -0.00759552047,
          0.00335614081, 0.00525547611, 0.0025733551, -0.012513224,
          -0.00619699527, -0.00569401914, -0.00399933336,
          -0.000729650026, -0.00968134217, 0.00359888654, -0.00119286834,
          0.0023815732, -0.0117828706, -0.00292209047, -0.00470495783,
          -0.00200590678, -0.00143647694, -0.00781694148, -0.00102836208,
          0.00270205364, -0.000575186859, -0.0132568665, -0.00488999393,
          -0.00267485599, -0.00284984079, -0.000371848902,
          -0.00989324134, 0.00287958118, -0.00180809235, 0.000412880618,
          -0.0146578699, -0.00305941631, -0.00280906167, -0.0137642762,
          -0.00497705676, -0.0109818801, 5.08545018e-05, 0.000353522191,
          0.00298674009, -0.00794409122, -0.000515818945, -0.0135717215,
          -0.00979010202, -0.00172404281, -0.010282048, 0.000772465253,
          0.00289490097, 0.000737894792, -0.00769397477, -0.000588283234,
          -0.00964100286, -0.0117440894, -0.0042170235, -0.0130241187,
          0.00128357706, 0.0044225012, 0.00320834178, -0.00915816333,
          0.000469204271, -0.0105839083, -0.011859796, -0.00520654256,
          -0.0145149929, 0.000955779047, 0.00236922782, 0.00162545603,
          -0.0083598597, -0.00042060166, -0.0101127485, -0.00983757805,
          -0.00598270632, -0.013410667, -0.00511848135, 0.00260554999,
          -0.00402126741, -0.00979130436, -0.00272582378, -0.00866557844,
          -0.00985195022, -0.00471274275, -0.00994770695, -0.00027625286,
          0.011747472, 0.00128897326, -0.00622298382, -0.00202575023,
          -0.00876600388, -0.0113494648, -0.00771615421, -0.0162090193,
          -0.00468384568, 0.00299063581, -0.00329930591, -0.0116230091,
          -0.00337568671, -0.00992880296, -0.00996337086, -0.0121464655,
          -0.0163440052, 0.000649516063, 0.0101673715, 0.00161588122,
          -0.00675775902, -0.00197556475, -0.0100888675, -0.0133407917,
          -0.00421598786, -0.00615095254, -0.000686384155, 0.00597605994,
          0.000411140645, -0.00348082394, -0.00121282798, -0.0129835652,
          -0.0105376374, -0.00465594884, -0.00956155546, 6.69390429e-05,
          0.0134260803, 0.0002243247, -0.00381712848, -0.00106216723,
          -0.0106970798, -0.0146088023, -0.00649601268, -0.0112990448,
          -0.000399966782, 0.00529220467, 8.42045774e-05, -0.00424210215,
          -0.00221176702, -0.0141310357, -0.0165517386, -0.01629081,
          -0.017159773, -0.00621657399, 0.00187921617, -0.00130982231,
          -0.00319310836, -0.005949941, -0.0178663619, -0.0062605245,
          -0.0048060799, -0.00716743944, -0.00023415839, 0.0142611964,
          0.000327978225, -0.000673727482, 0.000149370084,
          -0.00677042874, -0.00666006003, -0.00765958987, -0.00805851631,
          -0.00223527686, 0.0143405935, 0.000354584481, -1.79866674e-05,
          0.000874194549, -0.00670220982, -0.0117042698, -0.0130090229,
          -0.012780387, -0.00227408111, 0.00847672485, -0.000334949553,
          0.000512770785, -0.00377749139, -0.0124378055, -0.0167263374,
          -0.0147720687, -0.0157406107, -0.00482737413, -0.000462340395,
          -0.00230783131, 0.000718635391, 0.000103719962, -0.0183208752,
          -0.00823373068, -0.00410936074, -0.00292667188, -0.00368641131,
          0.0108849676, -0.000319465238, 1.82795179e-06, 4.15579452e-05,
          -0.00788149238, -0.00258102245, 0.000383194158, 0.00507316971,
          -0.000954101095, 0.00915187504, 0.00019098472, 0.00371986534,
          0.000115963943, -0.00271891523, -0.0147396298, -0.00747929607,
          -0.00607941998, -0.00387948495, -0.00201594434, -0.00145047298,
          0.000655314012, -0.000401707628, -0.0167267881, -0.0139000174,
          -0.00126755936, -0.00079033908, -0.00226281071,
          -0.000408066087, -0.00136317743, 0.00352180423,
          -0.000206252676, -0.0139118247, -0.00385532598, 0.000166142912,
          0.00137201033, -5.78587824e-05, -0.000611431722,
          -0.000328501454, 0.000343624182, -0.0017260859, -0.00468622474,
          0.00790395588, 0.00724223349, 0.00468309177, 0.00337258563,
          0.00333353225, -0.000782737217, 0.00654061232, 0.0033909909,
          0.00626320299, -0.0155086657, -5.21552647e-05, -0.000637653982,
          -0.000746387406, -0.00719152298, -2.71930166e-05,
          3.35807658e-06, -0.00202965597, -0.0154253226, -0.010427665,
          0.00697479723, 0.00459519913, -0.000524546951, -0.00555131072,
          0.000565615657, 0.000577775645, 0.000940507511, -0.00975313224,
          0.00632101996, 0.00255328231, -0.00202069269, -0.00123016152,
          -0.00743366592, -0.00291288481, -0.00272350595, 0.00117154035,
          0.00585285202, 0.00873314776, 0.00454693055, 0.00125388103,
          0.00296970061, -0.00414726045, 0.000247068907, -0.00173955236,
          -0.00132246956, 0.00727621512, -0.00333335437, 0.00286479364,
          -0.00116240897, -0.00258027576, -0.0143081769, -0.00267439266,
          0.000625100743, -0.00146099436, -0.00412462186, 0.00329035474,
          -0.00036725626, -0.00196297676, 0.00150498911, -0.00858530309,
          -0.0035413499, -0.00725118211, -0.00578374043, 0.00366332987,
          0.0101821218, 0.00488528563, 0.00343917217, 0.00189269322,
          -0.00144575001, -0.000529735291, -0.00597983832,
          -0.00623110263, 0.00849043857, 0.00985211693, 0.00371365156,
          0.00142663659, 0.000636716781, -0.00402249023, -0.000141726152,
          -0.00645238953, -0.0027641207, 0.009279171, 0.00787571911,
          0.00299574551, 0.00506320549, 0.00155708869, -0.00353173888,
          -0.00455867499, -0.0114590935, -0.0106647555, 0.005723882,
          0.00252998224, 0.00148767047, 0.00216533802, -0.00179805001,
          -0.000475162844, -0.00168332853, -0.0115832938, -0.0117040211,
          0.00146632502, 0.00988552533, 0.000667280052, -6.80518278e-05,
          0.000557551975, -0.00302956928, 0.000715617498,
          -0.000193152169, 0.00248762104, 0.00960179977, 0.00727698905,
          -0.00585782249, -0.00621933909, 0.000106071835, -0.00212731841,
          0.0012052228, 0.00225264858, 0.00169883203, 0.00825497881,
          0.00278373738, -0.00467925845, -0.005779678, -0.00466252398,
          -0.0050058323, -0.000870206626, -0.00472694915, -0.00547314808,
          0.00324268406, 0.00229523261, -0.0135878995, -0.016222246,
          -0.005629892, -0.005494148, -0.000813618884, 0.00255821995,
          -0.00125156296, 0.00366457691, 0.00748576364, -0.00878439751,
          -0.00963296648, 0.00055085693, 0.0041004573, 0.00186348741,
          0.00385084283, 0.00110190629, 0.00999067631, 0.00252619409,
          -0.0114786346, -0.014422331, -0.00366770779, -0.00161120726,
          -0.0050928751, -0.00619497895, -0.00499350252, 0.00466958573,
          0.00668777106, -0.0133597674, -0.0141794495, -0.000638693804,
          0.00190719031, 0.00109782082, -0.000271198136, -0.000873842975,
          0.0113241281, 0.00641217874, -0.00895439927, -0.0138104465,
          -0.00350481621, -0.00661490392, -0.00654971367, -0.0109166903,
          -0.0101795709, 0.00851090904, 0.00364633859, -0.0102175372,
          -0.0111174667, -0.00236580172, -0.00306118815, -0.00429673865,
          -0.00678798137, -0.00528454361, 0.00395224197, 0.00526708504,
          -0.00347404764, -0.0081606172, -0.00132493861, -0.00475932704,
          -0.00801852532, -0.0102545591, -0.00681497203, 0.00553690363,
          0.00582693331, -0.00194252748, -0.003303078, -0.00201332406,
          -0.00565523002, -0.00533202896, -0.0080217924, -0.00676325755,
          0.00602839654, 0.00525163813, -0.000588790281, -0.000114137059,
          -0.0030196642, -0.00908126682, -0.0054762559, -0.0111942254,
          -0.00978006236, 0.00410028687, 0.00497395033, -0.0032131616,
          -0.00423470559, -0.000276191044, 0.00300540309, -0.00416923035,
          -0.01285592, -0.00415238738, 0.00567041337, 0.00591073791,
          0.00207984634, -0.00021315887, 0.000519174559, -0.000982670928,
          -0.00507520279, -0.00996472314, -0.00585222617, 0.00354356668,
          0.00454736361, -0.000768183847, -0.00139391283, -0.00464829197,
          -0.00712332502, -0.00787483435, -0.0173363239, -0.0121425744,
          0.00226081582, 0.00864756666, 0.00177707651, 0.00239642081,
          -0.00244108425, -0.00401991326, -0.0085810842, -0.0127207506,
          -0.00910093449, 0.00317521836, -0.000912869815, 7.07276486e-05,
          -0.00502198609, 0.00296494691, -0.00247889198, -0.000228411955,
          -0.00574925216, -0.00222746748, -0.00249135285, -0.0076789395,
          -0.00146613969, -0.00590877654, -0.000679607445, 0.00600152928,
          -0.00159500388, -0.00487989048, -0.00211183378, -0.00794014893,
          -0.00450815493, 0.00195687078, 0.000344236701, 0.000577255909,
          -0.00714926003, -0.0121341338, -0.0142668756, -0.0174351893,
          -0.00609133951, -0.00335493544, -0.00161072321, -0.00359900249,
          0.00049721339, 0.00372116151, -0.00417836104, -0.00851242989,
          -0.00307742367, -0.00322528975, -0.00296586147, -0.00215507112,
          -0.00767661352, -0.00147196441, 0.00441571185, -0.00119134656,
          -0.00662543951, -0.00164647005, -0.00328499009, -0.00175118388,
          -0.0034041442, -0.00971155707, -0.00538305566, -5.03766278e-05,
          -0.00547830528, -0.0132445814, -0.00634618336, -0.00254954887,
          -0.00119340268, -0.00210481836, -0.00615746016, 0.000856953266,
          0.00379137578, -0.00220056786, -0.00894693471, -0.00296064792,
          -0.00158683397, -0.00131303736, -0.00376440515, -0.0102567747,
          -0.00180770853, -0.000569213124, -0.00584730832, -0.015343898,
          -0.00523839518, -0.00250215642, -0.00376521703, -0.00242359866,
          -0.00810332131, -0.00170619669, 0.00570685649, -0.00123314187,
          -0.0110011715, -0.00361558516, -0.0042467094, -0.00884166174,
          -0.0011000284, -0.00877110381, 0.00123179168, -0.00114748045,
          -0.00307075493, -0.0132750738, -0.00372557715, -0.00887927972,
          -0.00398838567, -0.00290104561, -0.0100717675, -8.40365246e-05,
          0.00597035652, -0.00118986319, -0.0123009188, -0.00453922711,
          -0.00403132755, -0.00690711057, -0.00162826432, -0.0103554735,
          0.00111387658, -0.0021855575, 0.00116356357, -0.0111348517,
          -0.00144401414, -0.00707954587, -0.00896935072, -0.00305692153,
          -0.0101633286, 0.000503599585, 0.00147016393, 0.0033864791,
          -0.00587388314, 0.000980339944, -0.00848507136, -0.0054803458,
          -0.00371091347, -0.0120040877, 0.000185114506, -0.00128749805,
          0.00327316485, -0.0054919282, 0.000538773776, -0.00279921247,
          0.00273844623, -0.00182898983, -0.00948351994, -0.00127443555,
          -0.00282326387, 0.00307641691, -0.00582788792, 0.000367547822,
          0.00215935707, 0.0048154667, -0.00200670259, -0.0126946084,
          -0.000216631932, -0.00301039661, 0.00252271979, -0.00624454068,
          0.000545308227, 0.0045808549, -0.00757979415, -0.00716625853,
          -0.0153781818, -0.00560167385, -0.00111463573, -0.00059109868,
          -0.00972585939, -0.00243299967, -0.00572028849, -0.00578064332,
          -0.00731483242, -0.0132659096, 0.00181331707, 0.00695532374,
          0.00198675808, -0.00622966746, -0.00110034901, -0.00474911276,
          0.00341803953, -0.00477559306, -0.0160600152, -0.00448660459,
          -0.00134163664, -0.00202476722, -0.0110483272, -0.00220600935,
          0.00342838117, 0.00560445152, -0.00600453466, -0.0104081146,
          -0.00108528219, 0.00226011081, 0.00210884796, -0.00609647576,
          -0.00150880043, 0.00586067094, -0.00481207576, -0.00661814446,
          -0.00899264682, 0.00110897375, 0.0096564088, 0.000826609379,
          -0.000840858556, -0.000255054503, -0.00461472291,
          -0.00696989428, -0.00937125459, -0.020667538, -0.00470426911,
          -0.00321385614, -0.00223332853, -0.000904318294,
          -0.00213090796, -0.00655733747, 0.00431253761, -0.00377131673,
          -0.00417678431, -0.000575163402, 0.000156705952,
          8.12039943e-05, -0.00383592723, -0.00204609241, 0.00456376979,
          0.00209848629, -0.00203058007, -0.00295280223, -0.00331607787,
          -0.00776277017, -0.00477634277, -0.00438065128, -0.00303774211,
          0.00458773598, -0.00568306074, -0.0082290601, -0.0155267362,
          -0.0031682679, -0.00196047919, 0.000291217497, 0.00157850981,
          0.0012016265, -0.00395708205, -0.00762713281, -0.00663442444,
          -0.014513731, -0.00178600976, -0.00375531195, 0.000481607014,
          0.00206276239, 0.000792431121, -0.0101782614, 0.00850618631,
          -0.00462603988, -0.0066943597, -0.00211618212, -0.0122098308,
          -0.00216922909, -0.000309446041, -9.89679975e-05,
          0.00985076278, 0.00725798169, -0.00547390804, -0.00674838573,
          -0.00458089262, -0.0134184416, -0.00212566229, -0.000254430342,
          -0.00274971779, 0.00227710372, -0.0135391392, -0.00498822285,
          -0.00811701827, -0.00257398817, -0.00561483717,
          -0.000796622073, 0.000522353745, -0.00100320182, -0.016087953,
          -0.0121268686, 0.0041183955, 0.00325120031, -0.00169773714,
          0.00169962924, -0.00015635851, 0.00510404538, 0.0021056945,
          -0.0112379584, 0.00529731438, -0.00502252206, -0.0108051812,
          -0.00457294937, -0.00767076015, -0.000288932584,
          0.000565778231, -0.00201954786, 0.00283009163, 0.00800353475,
          -0.0037181247, -0.00328455027, -0.0066653355, 0.000264631177,
          0.000488989579, 0.00553546706, 0.00188917154, 0.00846348982,
          -0.01497541, 0.00246992125, 0.00167598482, -0.00168420374,
          -0.00360370195, -0.000488544989, 8.46932926e-06,
          -0.00121807156, -0.0142452419, -0.0105887111, 0.00795737375,
          0.00663760537, -0.000900297542, -0.00224149204, 0.000481251976,
          0.00312852766, -0.000204265394, -0.010759715, 0.00361830974,
          -0.00136797491, -0.0034583942, -0.00584120117, -0.00373561541,
          -0.000633842428, 0.00176900218, 0.000498798792, 0.00371623784,
          0.0105680553, 0.00673841685, 0.00847532041, 0.00337314815,
          0.00438994355, 0.000278659427, 0.00603551557, 0.00327556115,
          0.00943860412, -0.00692004291, 0.00277671427, -0.00348515552,
          -0.0016736309, -0.003723467, -0.000563992886, 0.000835381681,
          -0.000905327266, -0.00770198787, -0.00301533751,
          -0.000763745978, -0.00404801127, -0.00211774255, -0.0033291413,
          -0.00250772573, -0.00720772194, -0.00349368108, -0.00199529179,
          0.00528082997, 0.0034334918, 0.00351216807, -0.00130911067,
          -0.000209830207, 0.00078292354, 0.00545442011, 0.00444562593,
          0.00498877419, 0.0101157408, 0.00237648794, 0.00473816786,
          -0.00362943113, 0.00386402104, 0.00219584233, 0.00738787604,
          0.00936405547, 0.00977121759, 0.00348937674, 0.00311687659,
          0.00260289013, -0.00181480625, -0.00165537687, -0.00304576475,
          -0.0116767045, -0.0123638548, 0.00182993105, -0.00144420436,
          0.00135433872, 0.00209690258, -0.004601778, 0.000216550558,
          -0.00192691863, -0.0125436168, -0.0133188972, -0.00144420436,
          0.0139597747, 0.00219117571, 0.00205840892, -0.00269501843,
          0.00607143249, 0.00175285817, -0.00135948765, 0.00151612493,
          0.0138173271, 0.0116877994, 0.00336512667, 0.00361214438,
          -0.00124447641, 0.00463842275, 0.000656435092, -0.00528755179,
          -0.00200253213, 0.0108694145, -0.000360702863, -0.00549603207,
          -0.00737511739, -0.00607500644, -0.0029734422, -0.000895241625,
          -0.00528393732, -0.00578530366, -2.17664056e-05,
          -0.00190847076, -0.0125152878, -0.0135386204, -0.00445611356,
          -0.00237688958, -0.00016434057, 0.0030381626, 0.00083405961,
          -0.000633308722, 0.0102932313, 0.000358463789, -0.000114184426,
          -0.00234011794, 0.00646177074, 0.000770742714, 0.000492078078,
          0.000521383772, 0.0103452336, 0.0120886518, -0.00219563209,
          -0.00414938806, 0.000840880384, 0.0110107185, 0.00234832452,
          0.00411095982, 0.00269853161, 0.0130110998, -0.00495382631,
          -0.0153267337, -0.0154071636, -0.0025197505, 0.0067294375,
          0.00157776126, 0.000691114692, -0.00267548719, -0.00385342655,
          0.00371258426, -0.0065453737, -0.0112558529, -0.00269248569,
          -0.00372151588, -0.00574601442, -0.0109476568, -0.0105525162,
          0.00651437417, 0.0144625725, 0.00101239712, 0.000164449433,
          0.00594704505, 0.0185175315, 0.00450835982, 0.00725598633,
          0.0039122398, 0.0141461845, 0.0126930205, 0.00148747803,
          0.00127858063, 0.0018055496, 0.00570630096, -0.00262486679,
          -0.00426017633, -0.00254708692, 0.0127373096, 0.00744774565,
          -0.00221385388, -0.0028312197, -0.00156988984, -0.00436592055,
          -0.00273624668, -0.00788476132, -0.00225443719, 0.00735315727,
          0.00489149103, -0.000974352821, -0.00149204873, -0.0049109282,
          -0.0102537032, -0.00626515737, -0.0070705316, -0.00480550574,
          0.00355301914, 0.011232649, 0.00078429631, 0.00300787017,
          0.000844364055, 0.00206060801, -0.0032567007, -0.00541548105,
          -0.00301337009, 0.0107660349, 0.00705615012, -0.000141765195,
          0.00219773711, -9.48552133e-06, -0.00573633797, -0.00597071834,
          -0.0127846701, -0.0080669485, 0.00567042129, 0.015519836,
          0.00132613827, 0.00181391451, -0.00191189663, -0.00927485805,
          -0.00616414519, -0.0119257113, -0.00417760294, 0.0130923511,
          0.0155070247, 0.00263753557, 0.00418729614, -0.000921184488,
          -0.00888838712, -0.00845262222, -0.0149697717, -0.00628128834,
          0.0121147251, 0.00516364397, -0.000907096779, 0.0012297444,
          -0.000202135328, -0.00587151013, -0.00549948635,
          -0.00845472701, -0.00655798148, 0.00233377237, 0.00592663558,
          0.00136509177, 0.00349215348, -0.000636001234, -0.0117910393,
          -0.00653130002, -0.00897674449, -0.00766093982, 0.00392995263,
          0.00346579636, 0.00140392152, 0.0041453396, 0.00130759669,
          -0.0134133995, -0.00584594952, -0.0154658565, -0.00575529551,
          0.00448867353, 0.00133830367, -0.000357270736, -0.000465862919,
          0.000896674697, 0.00727593014, -0.00564116938, -0.00958036259,
          -0.00722488854, -0.000754454173, 0.000267474767, 0.0012992312,
          0.00320338574, -7.29098829e-05, -0.013688053, -0.00608495809,
          -0.00722653791, -0.00611323956, 0.000273167156, -0.0027604627,
          -0.00267531909, -0.000140808974, 0.000531614118, 0.00710188225,
          -0.0044473852, -0.0126763945, -0.00854329299, -0.00421602791,
          0.00191777805, -0.000758469861, -0.0042093317, 0.00203459291,
          0.00337225851, -0.000178616552, -0.0101008825, -0.00460447278,
          0.000398553733, 0.00274810381, -0.00187113695, -0.00857493654,
          -0.00166334526, -0.00017620853, -0.00321755395, -0.0126679568,
          -0.00542785786, -0.000243105256, -1.26247432e-05,
          -0.000740400224, -0.00392582268, 0.00127533253, -0.00106066454,
          -0.00213007303, -0.0142275468, -0.00682866853, -0.00170112483,
          0.00248541031, -0.00382936816, -0.00914576277, -0.00296560978,
          -0.00172589242, -0.00382685545, -0.0137428883, -0.00679907389,
          0.00136532553, 0.00218147784, -0.000691730762, -0.00671485253,
          0.000624861219, 0.00334842131, 0.000531408354, -0.0102851689,
          -0.00430209236, 0.000752240885, -0.000556682004,
          -0.000210727434, -0.00615449948, 0.00149791432, -0.00670491671,
          0.00102306122, -0.00873846561, -0.000848127296,
          -0.000753259286, 0.00236867508, -0.00182775466, -0.00786625501,
          0.00122225343, -0.00105096726, -0.00202927459, -0.0116033722,
          -0.00460766302, 0.0019209052, -0.000349078298, 0.000218575937,
          -0.00561697967, 0.00208058651, -0.00978989527, -0.00132305047,
          -0.00978562329, -0.00223655882, -0.000373713556,
          -0.00356187066, -0.000663191488, -0.00894096494,
          -0.00257410319, 0.00141680345, -0.000221767274, -0.00619377196,
          -0.000404241175, -0.00395698845, -0.00135185197,
          -0.000842430454, -0.00902707968, -0.00113947724,
          -0.000490559265, -0.000643980864, -0.00585158356,
          -5.27053744e-05, -0.00220918143, -0.00390668027,
          0.000245152914, -0.00725941081, 0.000262762449, 0.00135101518,
          -0.00305094873, -0.0105174044, -0.00156926329, -0.00394408684,
          -0.00195823517, -0.000753706263, -0.00700845057,
          0.000492904801, -0.00119731796, -0.00311333942, -0.010689199,
          -0.00115592126, -0.00202763244, -0.00246487581, -0.00612118701,
          -0.0145756574, -0.00635149097, -0.00353612029, -0.00493419031,
          -0.010186729, -0.00238029263, -0.00208013761, -0.00111738604,
          -0.00312288012, -0.0102376183, -0.00147617445, 0.00584748434,
          7.01112585e-05, -0.0066004945, -0.00184351788, -0.00110192585,
          -0.00257070456, -0.0035165986, -0.0109897843, -0.00319668371,
          -0.00325946254, -0.0101784104, -0.0167938638, -0.00603939639,
          -0.00227611512, -0.00115873397, -0.00262752292, -0.00678099599,
          0.000580282416, 0.0044753179, -0.00206138869, -0.0111833252,
          -0.00354853831, -0.00141416967, 0.000949099835, -0.00285394466,
          -0.0055639483, -0.00291425153, -0.00102246518, -0.000895878009,
          -0.00401890138, -0.00159966806, 0.0011195573, 0.00497959089,
          0.000408596126, 1.99389433e-05, -0.000785748067, -0.0113239018,
          -0.00367468805, -0.00264596404, 0.000252103258, 0.00580582628,
          -0.000312654272, -0.00220164331, -0.00367985503,
          -0.000545284129, -0.0020473164, -0.00352619123, -0.00770210708,
          -0.0033304079, -0.000269325858, 0.00562803727, -0.000759035756,
          0.000980410725, -0.00129483466, -0.0114167947, -0.0063081542,
          -0.00772498827, -0.00301241851, 0.00487499265, 0.0051124976,
          -0.00700037042, -0.00601445651, -0.00160710455, -0.00500104576,
          -0.0024275675, -0.000421127974, -0.00107238733, 0.00864562113,
          0.00756464712, -0.00552500924, -0.00596350431, -0.00203369907,
          -0.0140685607, -0.00166949932, -0.000472404325, -0.00262647378,
          0.00609311741, 0.0063556903, -0.000848379743, -0.000237990869,
          -0.00179112575, -0.00247603888, -0.00400200533, -0.00935351942,
